#############################################################################
## Copyright (c) 1996, Carnegie Mellon University, Cambridge University,
## Ronald Rosenfeld and Philip Clarkson
## Version 3, Copyright (c) 2006, Carnegie Mellon University 
## Contributors includes Wen Xu, Ananlada Chotimongkol, 
## David Huggins-Daines, Arthur Chan and Alan Black 
#############################################################################
=============================================================================
===============  This file was produced by the CMU-Cambridge  ===============
===============     Statistical Language Modeling Toolkit     ===============
=============================================================================
This is a 3-gram language model, based on a vocabulary of 4603 words,
  which begins "$A-$B-$C-Reisebüro", "$D-$M", "$D-Mark"...
This is an OPEN-vocabulary model (type 1)
  (OOVs were mapped to UNK, which is treated as any other vocabulary word)
Good-Turing discounting was applied.
1-gram frequency of frequency : 2150 
2-gram frequency of frequency : 26164 4858 2130 1214 779 550 407 
3-gram frequency of frequency : 67729 6667 2387 1131 659 445 308 
1-gram discounting ratios : 1.00 
2-gram discounting ratios : 0.31 0.62 0.74 0.78 0.83 0.85 0.82 
3-gram discounting ratios : 0.18 0.52 0.62 0.72 0.81 0.80 0.82 
This file is in the ARPA-standard format introduced by Doug Paul.

p(wd3|wd1,wd2)= if(trigram exists)           p_3(wd1,wd2,wd3)
                else if(bigram w1,w2 exists) bo_wt_2(w1,w2)*p(wd3|wd2)
                else                         p(wd3|w2)

p(wd2|wd1)= if(bigram exists) p_2(wd1,wd2)
            else              bo_wt_1(wd1)*p_1(wd2)

All probs and back-off weights (bo_wt) are given in log10 form.

Data formats:

Beginning of data mark: \data\
ngram 1=nr            # number of 1-grams
ngram 2=nr            # number of 2-grams
ngram 3=nr            # number of 3-grams

\1-grams:
p_1     wd_1 bo_wt_1
\2-grams:
p_2     wd_1 wd_2 bo_wt_2
\3-grams:
p_3     wd_1 wd_2 wd_3 

end of data mark: \end\

\data\
ngram 1=4604
ngram 2=38548
ngram 3=80671

\1-grams:
-5.1043 <UNK>	0.0000
-4.8028 $A-$B-$C-Reisebüro	-0.4241
-5.1043 $D-$M	-0.1600
-3.6415 $D-Mark	-0.2941
-4.8028 $E	-0.1601
-3.6125 $I-$C	-0.3115
-3.5724 $I-$C-$E	-0.4335
-5.1043 $I-$C-$E-Fahren	-0.1579
-5.1043 $I-$C-$E-Strecke	-0.1576
-5.1043 $I-$C-$E-Unglück	-0.1600
-4.0625 $I-$C-Zuschlag	-0.3181
-5.1043 $K	-0.1601
-5.1043 $K-$O	-0.1557
-5.1043 $L	-0.1601
-5.1043 $L-$M-$U	-0.1600
-5.1043 $M	-0.1601
-5.1043 $P-$K-$W	-0.1536
-5.1043 $R	-0.1252
-5.1043 $S-Acht	-0.1599
-5.1043 $S-Bahn	-0.1600
-5.1043 $W-$C	-0.1601
-1.1117 </s>	-3.9922
-99.0000 <s>	-0.9249
-4.8028 A	-0.1592
-4.8028 Aachen	-0.1236
-4.8028 Ab	-0.1577
-5.1043 Aben	-0.1568
-3.0625 Abend	-0.2619
-4.5018 Abende	-0.1199
-4.3257 Abendessen	-0.1120
-4.8028 Abendflug	-0.1588
-4.4049 Abendgestaltung	-0.1568
-5.1043 Abendkasse	-0.1418
-4.8028 Abendplanung	-0.1536
-3.4226 Abendprogramm	-0.1793
-4.8028 Abendprogramme	-0.1547
-4.8028 Abendprogramms	-0.1247
-5.1043 Abendöffnung	-0.1574
-4.8028 Abfahrt	-0.1561
-5.1043 Abfahrtstermin	-0.1599
-5.1043 Abfahrtszeiten	-0.1252
-5.1043 Abflug	-0.1569
-4.8028 Abflugtermin	-0.1591
-4.8028 Abflugzeiten	-0.1240
-4.2588 Ableitner	-0.2340
-5.1043 Abom	-0.1601
-5.1043 Abonnements	-0.1465
-5.1043 Abreise	-0.1599
-4.6267 Absacker	-0.1583
-5.1043 Abschied	-0.1579
-4.8028 Abschluss	-0.1235
-5.1043 Abschlussbesprech	-0.1575
-5.1043 Abschnitt	-0.1600
-5.1043 Abschnitte	-0.1550
-5.1043 Abstand	-0.1591
-5.1043 Abständen	-0.1557
-5.1043 Abteil	-0.1599
-5.1043 Abteilen	-0.1578
-5.1043 Abteilung	-0.1584
-5.1043 Abteilungs-Geschichte	-0.1560
-5.1043 Abteilungsleiter	-0.1532
-4.6267 Abwechslung	-0.1247
-5.1043 Acht-Uhr-fünf-Flug	-0.1510
-4.8028 Action	-0.1153
-3.9899 Adresse	-0.1128
-4.8028 Adressen	-0.1587
-4.4049 Ahnung	-0.2077
-4.1496 Aigner	-0.4418
-5.1043 Aktivität	-0.1587
-4.8028 Aktivitäten	-0.1206
-5.1043 Alkohol	-0.1600
-4.8028 Allerheiligen	-0.1545
-5.1043 Allerliebste	-0.1252
-4.4049 Alpha-Tirol	-0.2383
-5.1043 Alternative	-0.1568
-5.1043 Alternativen	-0.1557
-5.1043 Alternativvorschlag	-0.1565
-4.6267 Am	-0.1601
-4.6267 Am-Funkturm	-0.1248
-4.6267 Am-Georgen	-0.1601
-3.6725 Am-Georgengarten	-0.2806
-5.1043 Am-Markt	-0.1598
-4.1496 Am-Rathaus	-0.2003
-4.2008 Am-Stadtpark	-0.2911
-5.1043 Am-Turm	-0.1598
-5.1043 Amt	-0.1587
-5.1043 An	-0.1532
-4.4049 An-der-Marktkirche	-0.3113
-5.1043 Anbetracht	-0.1568
-4.8028 Andrea	-0.4240
-5.1043 Anfa	-0.1599
-4.8028 Anfahrt	-0.1520
-5.1043 Anfahrtszeit	-0.1579
-3.2778 Anfang	-0.7024
-5.1043 Ang	-0.1601
-5.1043 Angabe	-0.1572
-4.6267 Angaben	-0.1596
-4.1039 Angebot	-0.1359
-4.0625 Angebote	-0.1245
-5.1043 Angeboten	-0.1584
-5.1043 Angeforderte	-0.1589
-5.1043 Angenehme	-0.1574
-5.1043 Angenehmen	-0.1601
-4.8028 Angriff	-0.1585
-4.8028 Angst	-0.1535
-5.1043 Animationsprogramm	-0.1601
-4.6267 Ankunft	-0.1512
-5.1043 Ankunftsz	-0.1565
-4.8028 Ankunftszeit	-0.1378
-4.6267 Anlass	-0.1386
-5.1043 Annahme	-0.1576
-4.1039 Anreise	-0.1351
-5.1043 Anreisemodalitäten	-0.1601
-5.1043 Anreisemöglichkeit	-0.1536
-5.1043 Anschlussflug	-0.1587
-5.1043 Anschlussmöglichkeiten	-0.1465
-5.1043 Anschlusszug	-0.1600
-5.1043 Anschriften	-0.1601
-4.1039 Anslik	-0.8491
-5.1043 Anspruch	-0.1591
-5.1043 Ansprüche	-0.1559
-4.8028 Ansprüchen	-0.1251
-5.1043 Anton	-0.1601
-5.1043 Anweisung	-0.1600
-4.3257 Apparat	-0.1838
-3.0995 April	-0.1831
-5.1043 Aprils	-0.1557
-4.8028 Aprilwoche	-0.1565
-4.1039 Arbeit	-0.1630
-5.1043 Arbeitervolk	-0.1599
-5.1043 Arbeits	-0.1601
-4.8028 Arbeitsessen	-0.1569
-5.1043 Arbeitsgemeinschaft	-0.1465
-5.1043 Arbeitskollegen	-0.1563
-4.6267 Arbeitstag	-0.1481
-4.0247 Arbeitstage	-0.1624
-4.2008 Arbeitstreffen	-0.1901
-5.1043 Arbeitsumfang	-0.1536
-5.1043 Arbeitszeit	-0.1597
-4.6267 Architekt	-0.1565
-4.8028 Aretz	-0.1412
-5.1043 Arnold-Schwarzenegger-Film	-0.1578
-4.8028 Art	-0.1177
-5.1043 Arzttermin	-0.1510
-5.1043 Asamstraße	-0.1252
-5.1043 Aspekt	-0.1532
-4.1496 Atlanta	-0.1989
-5.1043 Atlantis	-0.1587
-5.1043 Atmosphäre	-0.1559
-5.1043 Attraktives	-0.1584
-5.1043 Au	-0.1576
-5.1043 Aubergine	-0.1596
-5.1043 Auf-Nummer-Sicher-Gehen	-0.1532
-5.1043 Aufenthaltes	-0.1536
-4.8028 Aufführung	-0.1525
-5.1043 Aufsichtsrat	-0.1588
-5.1043 Aufstehen	-0.1601
-5.1043 Aufwand	-0.1557
-4.2008 Auge	-0.3156
-4.6267 Augen	-0.1152
-4.3257 Augenblick	-0.2214
-5.1043 Augenschein	-0.1591
-3.4704 August	-0.2259
-5.1043 Augusthälfte	-0.1600
-5.1043 Augustwoche	-0.1252
-4.6267 Auschecken	-0.1207
-5.1043 Ausflug	-0.1587
-5.1043 Ausgabe	-0.1601
-5.1043 Ausgeschwitzte	-0.1592
-5.1043 Ausklang	-0.1568
-5.1043 Ausmachungen	-0.1532
-4.4049 Ausstattung	-0.0997
-4.5018 Ausstellung	-0.2671
-3.6889 Auswahl	-0.2045
-5.1043 Auszugsliste	-0.1600
-3.3796 Auto	-0.3364
-4.8028 Autobahn	-0.1559
-5.1043 Autobahnen	-0.1587
-5.1043 Außergewöhnliches	-0.1252
-5.1043 B	-0.1550
-4.8028 Bad	-0.4172
-5.1043 Badewanne	-0.1252
-4.8028 Badezimmer	-0.1600
-3.5987 Bahn	-0.3557
-4.6267 Bahn-Card	-0.2823
-4.8028 Bahnfahrt	-0.1567
-5.1043 Bahngerüttel	-0.1599
-3.3963 Bahnhof	-0.2436
-4.6267 Bahnhofs	-0.1176
-4.0247 Bahnhofsnähe	-0.2168
-5.1043 Bahnkarten	-0.1252
-4.5018 Bahnsteig	-0.3935
-4.8028 Bahnverbindung	-0.1522
-3.9278 Bambas	-0.5177
-5.1043 Bankrott	-0.1532
-3.3635 Bar	-0.4365
-5.1043 Bars	-0.1532
-4.3257 Barth	-0.3895
-4.1039 Bassenhorst	-0.3532
-5.1043 Bauch-Weg-Gürtel	-0.1584
-4.4049 Bauer	-0.0912
-4.1039 Baumann	-0.8500
-5.1043 Bayer	-0.1536
-5.1043 Bayern	-0.1252
-4.2588 Becker	-0.4509
-5.1043 Bedenken	-0.1465
-5.1043 Begegnung	-0.1601
-5.1043 Begriffe	-0.1465
-4.5018 Behne	-0.6271
-3.3796 Beispiel	-0.1976
-4.8028 Bekannte	-0.1568
-4.5018 Bekannten	-0.1168
-5.1043 Beleg	-0.1589
-4.8028 Bereich	-0.1560
-4.2588 Berg	-0.6068
-4.2008 Berlin	-0.1662
-4.6267 Bernsmann	-0.3052
-4.1496 Bertele	-0.5336
-3.9899 Bescheid	-0.2944
-5.1043 Besichtigung	-0.1572
-4.8028 Besonderes	-0.1245
-4.6267 Besonderheiten	-0.1142
-3.8997 Besprechung	-0.1407
-4.5018 Besprechungen	-0.1477
-4.3257 Beste	-0.1197
-5.1043 Bestätigungen	-0.1579
-4.3257 Besuch	-0.2240
-5.1043 Bet	-0.1252
-5.1043 Betrag	-0.1601
-5.1043 Betriebs	-0.1601
-5.1043 Betriebs-Vorfeier	-0.1576
-4.4049 Betriebsausflug	-0.1421
-4.8028 Bett	-0.1249
-4.2008 Bielmeier	-0.3947
-4.6267 Bier	-0.3170
-5.1043 Bierchen	-0.1252
-5.1043 Biergärten	-0.1579
-5.1043 Billigeres	-0.1557
-3.6415 Bistro	-0.3583
-5.1043 Blaue	-0.1601
-4.6267 Blick	-0.3133
-5.1043 Blutspende-Termin	-0.1568
-5.1043 Blöde	-0.1465
-5.1043 Boden	-0.1557
-3.2650 Bonn	-0.4697
-5.1043 Bonner	-0.1597
-4.1496 Borghoff	-0.4867
-4.8028 Braunschweig	-0.1573
-4.3257 Breit	-0.1807
-5.1043 Brib	-0.1600
-5.1043 Brick	-0.1601
-5.1043 Briefing	-0.1563
-5.1043 Brille	-0.1601
-4.6267 Broschüre	-0.1532
-4.8028 Broschüren	-0.1538
-4.5018 Bruder	-0.2611
-5.1043 Brücke	-0.1599
-4.0625 Buchung	-0.2838
-5.1043 Buchungen	-0.1601
-4.6267 Budget	-0.1248
-4.8028 Buffet	-0.1530
-3.8486 Bulmahn	-0.5667
-5.1043 Bummel	-0.1510
-4.6267 Bus	-0.1571
-4.8028 Business	-0.1573
-5.1043 Busnetz	-0.1563
-5.1043 Busreise	-0.1576
-5.1043 Busse	-0.1252
-4.8028 Busverbindung	-0.1494
-3.9899 Bäcker	-0.3664
-5.1043 Bücher	-0.1578
-4.8028 Bühne	-0.1586
-4.3257 Büro	-0.1524
-3.7614 Cafeteria	-0.3859
-5.1043 Cent	-0.1550
-4.8028 Chance	-0.1490
-4.6267 Chauffeur	-0.2675
-3.8997 Chef	-0.0925
-5.1043 Chefs	-0.1565
-5.1043 Chez-Jacques	-0.1465
-5.1043 Chinese	-0.1576
-4.6267 Chinesen	-0.1540
-5.1043 Christian	-0.1601
-3.6725 City	-0.2346
-5.1043 Cocktails	-0.1532
-4.8028 Computer	-0.1592
-4.6267 Concorde-am-Leineschloss	-0.1409
-4.4049 Conesa	-0.3017
-3.7237 Cristal	-0.3484
-5.1043 Cristal-Hotel	-0.1576
-5.1043 Cristial	-0.1600
-5.1043 Cäsar	-0.1601
-5.1043 Da-Giovanni	-0.1575
-3.7421 Dampfbad	-0.4318
-5.1043 Dampfbad-Hotel	-0.1600
-5.1043 Dampfbaden	-0.1591
-5.1043 Dampfplauderei	-0.1252
-3.4507 Dank	-0.6652
-4.0247 Daten	-0.1732
-4.5018 Datum	-0.1419
-4.6267 Dauer	-0.1572
-5.1043 Daumen	-0.1589
-5.1043 De	-0.1595
-4.8028 Debatte	-0.1595
-5.1043 Der-zerbrochene-Krug	-0.1252
-4.0625 Deschinger	-0.2971
-5.1043 Details	-0.1252
-5.1043 Deutsche-Bahn	-0.1600
-4.8028 Deutschherrenstraße	-0.3891
-5.1043 Deutschland	-0.1536
-5.1043 Deutschlands	-0.1252
-3.3330 Dezember	-0.2616
-4.5018 Dezemberwoche	-0.1532
-5.1043 Dezemberwochen	-0.1600
-5.1043 Die-Physiker	-0.1591
-5.1043 Dien	-0.1596
-5.1043 Diens	-0.1591
-4.5018 Dienst-$P-$K-$W	-0.1481
-2.9366 Dienstag	-0.3223
-5.1043 Dienstagstermin	-0.1601
-5.1043 Dienstanweisung	-0.1600
-4.8028 Dienstauto	-0.1206
-3.7614 Dienstbesprechung	-0.2243
-5.1043 Dienstbesprechungen	-0.1252
-5.1043 Dienstr	-0.1252
-3.3115 Dienstreise	-0.3516
-4.5018 Dienstwagen	-0.1494
-5.1043 Dienstwoche	-0.1594
-5.1043 Ding	-0.1557
-4.8028 Dinge	-0.1555
-5.1043 Dings	-0.1547
-3.8997 Doktor	-0.9630
-5.1043 Dom	-0.1418
-2.8510 Donnerstag	-0.4121
-5.1043 Doppel	-0.1252
-5.1043 Doppelte	-0.1584
-3.2588 Doppelzimmer	-0.4449
-4.6267 Dorint-Hotel	-0.1447
-5.1043 Dorn	-0.1600
-3.9577 Dortmund	-0.2242
-4.5018 Dotzler	-0.2573
-5.1043 Drei-$D-Kino	-0.1601
-5.1043 Dreiviertelstunde	-0.1601
-5.1043 Durchdrehen	-0.1532
-5.1043 Dusche	-0.1587
-5.1043 Däumchen	-0.1601
-5.1043 Dürrenmatt	-0.1536
-4.8028 E-Mail	-0.1248
-4.6267 Ecke	-0.3038
-5.1043 Economy-Class	-0.1252
-4.8028 Eden	-0.1568
-5.1043 Ehefrauen	-0.1594
-5.1043 Ehre	-0.1252
-4.8028 Eile	-0.1550
-5.1043 Eilenriede	-0.1532
-4.8028 Ein	-0.1551
-5.1043 Einbuchen	-0.1557
-4.5018 Einchecken	-0.2605
-4.6267 Eindruck	-0.1247
-5.1043 Eingang	-0.1252
-5.1043 Einkaufsstraßen	-0.1574
-4.5018 Einzel	-0.1384
-2.8206 Einzelzimmer	-0.5711
-5.1043 Einzelzimmerpreis	-0.1252
-5.1043 Einzelzimmerzuschlag	-0.1252
-5.1043 Einzige	-0.1578
-4.6267 Eisenbahn	-0.2809
-5.1043 Eiz	-0.1594
-5.1043 Elitäres	-0.1595
-5.1043 Eltern	-0.1598
-4.8028 Elternabend	-0.1590
-5.1043 Elternsprechtag	-0.1600
-5.1043 Emil	-0.1601
-5.1043 Empfehlungen	-0.1601
-3.3115 Ende	-0.7682
-5.1043 Endeffekt	-0.1601
-4.5018 Entfernung	-0.3943
-4.6267 Entscheidung	-0.1496
-4.1039 Entschuldigung	-0.2417
-4.3257 Entspannung	-0.1492
-4.8028 Erding	-0.1181
-5.1043 Ereignis	-0.1600
-4.6267 Erfahrung	-0.1219
-4.2588 Erfahrungen	-0.4430
-5.1043 Erfolg	-0.1532
-5.1043 Ergebnisse	-0.1601
-5.1043 Ergebnissen	-0.1601
-4.8028 Erholung	-0.3891
-5.1043 Erledigungen	-0.1588
-5.1043 Erledung	-0.1601
-4.8028 Ermäßigung	-0.3891
-5.1043 Ermäßigungen	-0.1584
-5.1043 Ersparnis	-0.1532
-5.1043 Erste-Klasse	-0.1550
-5.1043 Erste-Mai-Feiertag	-0.1536
-5.1043 Erstgenannte	-0.1601
-5.1043 Eschede	-0.1593
-3.5128 Essen	-0.7061
-5.1043 Essenszeiten	-0.1536
-5.1043 Etage	-0.1536
-3.5854 Euro	-0.4015
-5.1043 Euro-Preis	-0.1418
-4.5018 Europa	-0.1398
-4.8028 Ewigkeiten	-0.4212
-4.6267 Exl	-0.5432
-4.6267 Expo	-0.1430
-4.8028 Expo-Zweitausend	-0.1378
-4.6267 Extras	-0.1575
-4.0625 F	-0.1822
-5.1043 Fa	-0.1599
-4.8028 Fahrdauer	-0.4175
-5.1043 Fahrer	-0.1601
-4.8028 Fahrkarte	-0.4231
-4.5018 Fahrkarten	-0.2652
-5.1043 Fahrkosten	-0.1600
-5.1043 Fahrplan	-0.1593
-5.1043 Fahrpläne	-0.1536
-3.7421 Fahrt	-0.2665
-5.1043 Fahrtakt	-0.1536
-3.8486 Fahrtdauer	-0.3394
-4.8028 Fahrten	-0.1531
-5.1043 Fahrtmöglichkeit	-0.1579
-5.1043 Fahrtmöglichkeiten	-0.1579
-4.6267 Fahrzeit	-0.1156
-3.2977 Fall	-0.1299
-4.3257 Familie	-0.1199
-5.1043 Fan	-0.1600
-4.8028 Faseler	-0.1242
-5.1043 Favorit	-0.1536
-5.1043 Fax	-0.1565
-5.1043 Faxnummer	-0.1510
-5.1043 Feb	-0.1418
-3.2526 Februar	-0.3130
-5.1043 Februars	-0.1572
-4.1496 Februarwoche	-0.0928
-5.1043 Feidmann	-0.1550
-5.1043 Feierabend	-0.1252
-5.1043 Feiern	-0.1550
-4.3257 Feiertag	-0.2746
-4.5018 Feiertage	-0.1524
-5.1043 Feines	-0.1252
-5.1043 Feldstecher	-0.1563
-4.8028 Fenster	-0.1567
-4.8028 Fensterplatz	-0.1574
-4.8028 Ferien	-0.1600
-5.1043 Ferrari	-0.1601
-5.1043 Festes	-0.1600
-5.1043 Festtagen	-0.1589
-5.1043 Figur	-0.1252
-4.5018 Figura	-0.2186
-5.1043 Filial-Treffen	-0.1563
-4.6267 Filialbesichtigung	-0.1176
-5.1043 Filialbesuche	-0.1597
-3.2977 Filiale	-0.3628
-4.2588 Film	-0.1213
-5.1043 Filmaufführung	-0.1532
-4.4049 Filme	-0.1525
-5.1043 Filofax	-0.1599
-5.1043 Finanzplanung	-0.1601
-3.3796 Firma	-0.2915
-4.8028 Firmen	-0.1465
-4.8028 Firmenkosten	-0.1535
-5.1043 Fischgerichte	-0.1532
-5.1043 Fitnessprogramm	-0.1593
-3.9278 Fitnessraum	-0.3332
-5.1043 Fitnessräumen	-0.1576
-5.1043 Fitnessstudio	-0.1599
-4.2588 Fleischer	-0.1537
-5.1043 Flie	-0.1597
-5.1043 Flieg	-0.1596
-3.7816 Fliegen	-0.1557
-3.7237 Flieger	-0.2946
-2.9395 Flug	-0.3309
-4.2008 Flugangst	-0.1627
-5.1043 Flugbedingungen	-0.1600
-5.1043 Flugbestellung	-0.1532
-5.1043 Flugdauer	-0.1510
-4.8028 Fluggesellschaft	-0.1536
-3.2526 Flughafen	-0.2984
-5.1043 Flughafenbus	-0.1252
-5.1043 Flughafenhotel	-0.1550
-4.8028 Flughafens	-0.1534
-5.1043 Flughafensachen	-0.1252
-5.1043 Flugkarten	-0.1532
-5.1043 Fluglinie	-0.1532
-4.5018 Flugplan	-0.2715
-4.2588 Flugplatz	-0.2484
-5.1043 Flugpläne	-0.1576
-4.8028 Flugreise	-0.1585
-5.1043 Flugreisen	-0.1418
-5.1043 Flugtermin	-0.1595
-5.1043 Flugtickets	-0.1252
-5.1043 Flugunterlagen	-0.1536
-5.1043 Flugv	-0.1581
-3.9899 Flugverbindung	-0.2394
-3.9577 Flugverbindungen	-0.1521
-4.8028 Flugzeig	-0.1596
-3.5598 Flugzeit	-0.3487
-4.6267 Flugzeiten	-0.1555
-5.1043 Flugzeu	-0.1601
-3.0432 Flugzeug	-0.2727
-5.1043 Flugzeug-Essen	-0.1586
-5.1043 Flugzeugabstürzen	-0.1532
-5.1043 Flugzeuge	-0.1590
-5.1043 Flugzeugen	-0.1532
-5.1043 Fläschchen	-0.1601
-5.1043 Flü	-0.1601
-3.2231 Flüge	-0.3430
-4.5018 Flügen	-0.1419
-4.3257 Fody	-0.2552
-5.1043 Folge	-0.1597
-5.1043 Folgendes	-0.1418
-4.5018 Fora-Hotel	-0.1413
-5.1043 Formalitäten	-0.1600
-5.1043 Formulare	-0.1252
-5.1043 Fortbildungsreise	-0.1591
-5.1043 Fra	-0.1587
-3.3879 Frage	-0.3715
-4.6267 Fragen	-0.1201
-5.1043 Frankfurt	-0.1579
-2.5298 Frau	-0.9801
-5.1043 Frauen	-0.1601
-5.1043 Freiflug	-0.1601
-5.1043 Freiheit	-0.1595
-5.1043 Freilichtkino	-0.1532
-5.1043 Freilichttheater	-0.1418
-2.8633 Freitag	-0.3358
-5.1043 Freizeit	-0.1572
-5.1043 Freizeitangebot	-0.1597
-5.1043 Freizeitgestaltung	-0.1252
-5.1043 Freizeitmöglichkeiten	-0.1601
-5.1043 Freizeitraum	-0.1595
-4.8028 Fremdenverkehrsamt	-0.1184
-4.4049 Freund	-0.2435
-5.1043 Freunde	-0.1536
-4.1039 Freyer	-1.1274
-5.1043 Friseurtermin	-0.1252
-5.1043 Frist	-0.1601
-4.8028 Fritzen	-0.4238
-4.3257 Fronleichnam	-0.1725
-3.7816 Früh	-0.1639
-5.1043 Frühaufsteh-Typ	-0.1252
-4.8028 Frühaufsteher	-0.1204
-4.8028 Frühe	-0.1237
-5.1043 Frühes	-0.1576
-5.1043 Frühjahr	-0.1600
-5.1043 Frühling	-0.1583
-5.1043 Frühste	-0.1252
-3.8486 Frühstück	-0.1939
-4.0247 Frühstücksbuffet	-0.3987
-4.8028 Funkturm	-0.1549
-4.2008 Fuß	-0.1520
-4.4049 Fälle	-0.3065
-5.1043 Führer	-0.1588
-5.1043 Fünfter-Sechster-Termin	-0.1584
-5.1043 Gang	-0.1572
-5.1043 Ganze	-0.1601
-3.4049 Garage	-0.2947
-5.1043 Gastspiele	-0.1252
-5.1043 Ge	-0.1565
-4.6267 Geburtstag	-0.1209
-5.1043 Gebäude	-0.1589
-5.1043 Gebäudes	-0.1601
-3.9899 Gedanken	-0.7152
-5.1043 Gegend	-0.1536
-5.1043 Gegenleistung	-0.1592
-4.8028 Gegensatz	-0.1559
-5.1043 Gegenteil	-0.1601
-5.1043 Gegenzug	-0.1595
-5.1043 Gehobeneres	-0.1252
-5.1043 Geistern	-0.1601
-4.1039 Geld	-0.1983
-5.1043 Gelegenheit	-0.1600
-5.1043 Genaueres	-0.1589
-5.1043 Georg	-0.1601
-5.1043 Georgen	-0.1581
-5.1043 Georgen-Hof	-0.1553
-4.2008 Georgengarten	-0.1672
-4.6267 Gepäck	-0.1543
-4.8028 Gerichtstermin	-0.1516
-5.1043 Gesamte	-0.1587
-4.3257 Gesamtkonferenz	-0.2984
-4.5018 Geschenke	-0.1581
-5.1043 Geschichte	-0.1252
-5.1043 Geschmack	-0.1587
-5.1043 Gescht	-0.1565
-5.1043 Geschwindigkeit	-0.1252
-4.8028 Geschäft	-0.1487
-5.1043 Geschäftchen	-0.1600
-5.1043 Geschäftliche	-0.1572
-4.4049 Geschäfts	-0.3479
-5.1043 Geschäftsauto	-0.1465
-4.1039 Geschäftsessen	-0.1085
-5.1043 Geschäftsfahrt	-0.1587
-5.1043 Geschäftsfreunden	-0.1565
-5.1043 Geschäftsführer	-0.1536
-4.2588 Geschäftspartner	-0.2041
-4.5018 Geschäftspartnern	-0.1548
-5.1043 Geschäftsrei	-0.1601
-3.1643 Geschäftsreise	-0.3942
-5.1043 Geschäftsreisende	-0.1252
-5.1043 Geschäftsstelle	-0.1587
-5.1043 Geschäftstag	-0.1577
-4.4049 Geschäftstermin	-0.1490
-5.1043 Geschäftstermine	-0.1601
-4.2008 Gespräch	-0.1724
-5.1043 Gesprächen	-0.1570
-5.1043 Gestaltung	-0.1568
-5.1043 Gewöhnliche	-0.1579
-4.4049 Gildehof	-0.3462
-5.1043 Gildenhof	-0.1536
-5.1043 Giora	-0.1601
-5.1043 Gleis	-0.1252
-5.1043 Glotze	-0.1600
-5.1043 Gläschen	-0.1601
-4.6267 Glück	-0.1394
-4.8028 Go	-0.1598
-5.1043 Goethestraße	-0.1596
-3.1354 Gott	-1.0679
-4.4049 Gottes	-0.7745
-4.2588 Grab	-0.6025
-5.1043 Grand-Canyon	-0.1577
-5.1043 Grand-Hotel	-0.1568
-5.1043 Graus	-0.1532
-5.1043 Grausliges	-0.1601
-5.1043 Grenze	-0.1601
-5.1043 Grenzen	-0.1252
-4.8028 Großstadt	-0.1597
-4.3257 Gruber	-0.2651
-4.8028 Gute	-0.1556
-4.8028 Guten-Flug	-0.4238
-4.4049 Gutes	-0.1172
-5.1043 Göttingen	-0.1601
-4.6267 Gültigkeitsdauer	-0.1524
-4.8028 Güte	-0.1053
-4.8028 H	-0.1601
-4.8028 Ha	-0.1226
-4.5018 Haas	-0.2321
-5.1043 Halb	-0.1568
-5.1043 Hallen	-0.1600
-3.5987 Hallenbad	-0.4883
-4.8028 Ham	-0.1541
-4.2008 Hamburg	-0.0975
-4.4049 Hand	-0.1058
-5.1043 Handke	-0.1465
-4.8028 Hannes	-0.4241
-5.1043 Hanno	-0.1599
-2.2682 Hannover	-0.2724
-5.1043 Hannover-Fahrt	-0.1532
-5.1043 Hannover-Kunsthalle	-0.1465
-4.5018 Hannover-Reise	-0.1366
-4.8028 Hannover-Sache	-0.1575
-5.1043 Hannover-Termin	-0.1601
-4.5018 Hannoveraner	-0.1596
-5.1043 Hannoveranern	-0.1560
-5.1043 Hannovers	-0.1601
-4.6267 Hau	-0.1220
-3.0704 Hauptbahnhof	-0.2858
-4.8028 Hauptbahnhof-Gegend	-0.1220
-5.1043 Hauptbahnhofnähe	-0.1252
-4.8028 Hauptbahnhofs	-0.1542
-5.1043 Hauptsache	-0.1495
-4.2008 Haus	-0.1488
-3.9278 Hause	-0.3211
-5.1043 Hauses	-0.1584
-5.1043 Hausfrau	-0.1553
-5.1043 He	-0.1583
-5.1043 Heftchen	-0.1510
-4.2588 Heimberg	-0.3088
-5.1043 Heimfahrt	-0.1550
-4.1039 Heinlein	-0.2224
-5.1043 Heinrich-von-Kleists	-0.1565
-4.6267 Herbst	-0.1250
-5.1043 Herbstferien	-0.1563
-5.1043 Herbsturlaub	-0.1550
-2.7775 Herr	-0.7878
-5.1043 Herren	-0.1252
-4.4049 Herrn	-0.1600
-5.1043 Herz	-0.1550
-4.8028 Hilfe	-0.3891
-5.1043 Hilfeschrei	-0.1591
-4.4049 Hillers	-0.3357
-4.6267 Himmelfahrt	-0.1412
-5.1043 Himmels	-0.1601
-5.1043 Hin	-0.1532
-4.1496 Hinfahrt	-0.1432
-5.1043 Hinfliegen	-0.1579
-4.6267 Hinflug	-0.1503
-5.1043 Hinkommen	-0.1599
-4.8028 Hinreise	-0.1251
-4.8028 Hinsicht	-0.1248
-4.8028 Ho	-0.1600
-5.1043 Hof	-0.1465
-4.4049 Hofbauer	-0.7395
-4.5018 Holle	-0.2107
-5.1043 Hot	-0.1601
-4.8028 Hote	-0.1582
-2.3771 Hotel	-0.3623
-4.8028 Hotelangebote	-0.1531
-5.1043 Hotelangeboten	-0.1252
-5.1043 Hotelbar	-0.1599
-5.1043 Hotelbeschreibung	-0.1578
-4.3257 Hotelbuchung	-0.1141
-5.1043 Hoteldirektion	-0.1560
-5.1043 Hotelessen	-0.1465
-4.8028 Hotellisten	-0.1553
-5.1043 Hoteln	-0.1465
-5.1043 Hotelpläne	-0.1579
-4.8028 Hotelreservierung	-0.1594
-3.0175 Hotels	-0.3138
-4.6267 Hotelunterkunft	-0.1508
-5.1043 Hotelverzeichnis	-0.1559
-4.8028 Hotelvorschläge	-0.1558
-5.1043 Hotelzimmer	-0.1600
-4.0625 Huber	-0.4553
-5.1043 Huf	-0.1601
-5.1043 Hut	-0.1510
-4.8028 Hälfte	-0.4237
-5.1043 Häuser	-0.1601
-5.1043 Höhe	-0.1601
-4.6267 Ibis	-0.1456
-3.3963 Idee	-0.4324
-5.1043 Ideen	-0.1252
-2.3480 Ihnen	-0.4449
-3.9278 Ihr	-0.2779
-3.7237 Ihre	-0.3731
-3.9899 Ihrem	-0.2607
-3.8486 Ihren	-0.3121
-4.2588 Ihrer	-0.1598
-5.1043 Ihrerseits	-0.1559
-5.1043 Imax	-0.1563
-4.6267 Imbiss	-0.1220
-4.6267 Information	-0.1488
-3.8028 Informationen	-0.2143
-5.1043 Informationsmöglichkeiten	-0.1550
-5.1043 Informationszettel	-0.1600
-4.8028 Infos	-0.1578
-4.8028 Ingo	-0.1251
-3.4806 Innenstadt	-0.3086
-5.1043 Innenstadtnähe	-0.1599
-5.1043 Inspektionsreise	-0.1601
-4.5018 Intercity	-0.2337
-4.2588 Intercity-Hotel	-0.1479
-5.1043 Interessantes	-0.1578
-4.8028 Interesse	-0.1587
-4.6267 Interessen	-0.1151
-3.9899 Internet	-0.2025
-4.6267 Italiener	-0.1596
-3.7059 Jahr	-0.2317
-4.8028 Jahre	-0.1527
-5.1043 Jahren	-0.1578
-4.4049 Jahres	-0.2053
-5.1043 Jahresende	-0.1589
-4.8028 Jahressoll	-0.1251
-4.6267 Jahrestagung	-0.1355
-5.1043 Jahresurlaub	-0.1550
-4.6267 Jahreswechsel	-0.3095
-5.1043 Jahreszeit	-0.1559
-3.0664 Januar	-0.2977
-4.1496 Januarwoche	-0.2034
-5.1043 Jazz	-0.1559
-5.1043 Jazzbar	-0.1576
-4.8028 Jehniken	-0.1513
-5.1043 Ju	-0.1601
-4.6267 Julei	-0.1566
-3.1354 Juli	-0.2847
-5.1043 Juliwoche	-0.1579
-5.1043 Julu	-0.1584
-3.4507 Juni	-0.2982
-5.1043 Junis	-0.1588
-4.6267 Juniwoche	-0.1467
-4.4049 Junker	-0.2012
-4.8028 Juno	-0.3891
-4.8028 Jänsch	-0.1509
-5.1043 Kabale-un	-0.1252
-5.1043 Kabale-und-Liebe	-0.1465
-4.1496 Kaduthanam	-0.6135
-5.1043 Kaf	-0.1600
-4.4049 Kaffee	-0.1499
-3.9577 Kalender	-0.2084
-5.1043 Kalenders	-0.1565
-4.5018 Kalenderwoche	-0.1027
-5.1043 Kam	-0.1565
-5.1043 Kammerspielen	-0.1563
-5.1043 Kante	-0.1572
-4.4049 Kantine	-0.2000
-5.1043 Kapazitäten	-0.1601
-5.1043 Kappe	-0.1252
-4.5018 Karneval	-0.2520
-5.1043 Karnevalswoche	-0.1594
-5.1043 Karnevalswochenende	-0.1596
-4.5018 Karte	-0.2350
-3.5241 Karten	-0.3140
-5.1043 Kartenreservierungen	-0.1532
-5.1043 Kasse	-0.1597
-5.1043 Katastrophe	-0.1465
-5.1043 Katego	-0.1600
-5.1043 Kattorie	-0.1600
-4.6267 Kauf	-0.2812
-5.1043 Ke	-0.1599
-5.1043 Keller	-0.1578
-5.1043 Kellertheater	-0.1600
-5.1043 Ken	-0.1599
-4.5018 Kewitz	-0.2257
-3.5128 Kilometer	-0.3657
-4.5018 Kind	-0.1217
-4.4049 Kinder	-0.3422
-4.8028 Kindergarten	-0.4240
-5.1043 Kindergartenfest	-0.1532
-5.1043 Kindern	-0.1601
-3.1401 Kino	-0.4529
-4.8028 Kinobesuch	-0.1575
-5.1043 Kinofan	-0.1590
-4.8028 Kinofilm	-0.1250
-4.6267 Kinokarten	-0.1561
-4.5018 Kinos	-0.1505
-5.1043 Kipp	-0.1594
-4.6267 Kiso	-0.5432
-5.1043 Kissen	-0.1532
-5.1043 Klappe	-0.1601
-5.1043 Klarinette	-0.1539
-3.9577 Klasse	-0.2636
-4.8028 Klassik	-0.1587
-5.1043 Klassikfan	-0.1576
-4.4049 Klaus	-0.3537
-5.1043 Klavierkonzerten	-0.1597
-5.1043 Kleefelder	-0.1536
-4.8028 Kleefelder-Hof	-0.1513
-5.1043 Kleinen	-0.1252
-4.8028 Kleineres	-0.1204
-5.1043 Klemens	-0.1601
-4.1039 Klemer	-0.4814
-4.2008 Klentzky	-0.5016
-5.1043 Klub	-0.1252
-5.1043 Klubmitglied	-0.1584
-5.1043 Knei	-0.1601
-3.8486 Kneipe	-0.3456
-4.5018 Kneipen	-0.2317
-4.6267 Kneipenbesuch	-0.1544
-4.5018 Kneipentour	-0.1441
-4.4049 Knipp	-0.4715
-5.1043 Koffertragen	-0.1539
-5.1043 Kollege	-0.1595
-4.0247 Kollegen	-0.2197
-5.1043 Kombination	-0.1252
-4.4049 Komfort	-0.1452
-4.0625 Komma	-0.3960
-5.1043 Komplettpaket	-0.1600
-5.1043 Kompromisse	-0.1575
-3.6567 Konferenz	-0.1151
-5.1043 Konferenz-Abteile	-0.1252
-4.6267 Konferenzen	-0.1439
-3.2714 Konferenzraum	-0.3232
-5.1043 Kongress	-0.1601
-5.1043 Kongressen	-0.1536
-4.0247 Kongresshotel	-0.6014
-5.1043 Konitzer	-0.1465
-4.8028 Konkretes	-0.1540
-5.1043 Kontakte	-0.1252
-4.8028 Konzept	-0.1585
-3.5598 Konzert	-0.3246
-3.9899 Konzerte	-0.1251
-5.1043 Konzertkalender	-0.1536
-4.8028 Konzertprogramm	-0.1600
-4.4049 Kopf	-0.1525
-5.1043 Kopien	-0.1592
-5.1043 Korrespondenz	-0.1600
-4.1496 Kosten	-0.1361
-5.1043 Kostenfaktor	-0.1592
-5.1043 Kostengründen	-0.1597
-4.5018 Kotten	-0.2269
-5.1043 Kraft	-0.1532
-3.7816 Kraftraum	-0.5267
-4.8028 Kram	-0.1598
-5.1043 Krankheit	-0.1553
-5.1043 Kreis	-0.1559
-5.1043 Kreise	-0.1550
-5.1043 Kriterium	-0.1587
-4.6267 Kronsberger	-0.1049
-4.5018 Kronsberger-Hof	-0.2514
-4.4049 Kröpcke	-0.1249
-4.5018 Kultur	-0.2372
-5.1043 Kulturangebot	-0.1252
-5.1043 Kulturbanause	-0.1418
-5.1043 Kulturbroschüre	-0.1601
-5.1043 Kulturdiaspora	-0.1536
-5.1043 Kulturfreak	-0.1252
-5.1043 Kulturhauptstadt	-0.1252
-5.1043 Kulturhochburg	-0.1601
-4.8028 Kulturkalender	-0.1585
-5.1043 Kulturleben	-0.1532
-4.8028 Kunden	-0.1530
-5.1043 Kunst	-0.1465
-5.1043 Kursen	-0.1418
-4.0625 Köln	-0.1355
-3.7237 Köln-Bonn	-0.2062
-4.6267 Köln-Bonner	-0.3150
-4.1496 Königshof	-0.1940
-5.1043 Köpfen	-0.1600
-4.2008 Körner	-0.2716
-4.4049 Küche	-0.1978
-5.1043 Kürzeste	-0.1599
-5.1043 Laden	-0.1592
-4.0247 Lage	-0.1964
-4.8028 Lande	-0.3891
-5.1043 Landes	-0.1252
-4.8028 Landschaft	-0.1563
-5.1043 Landschaften	-0.1584
-5.1043 Langenhagen	-0.1532
-5.1043 Langeweile	-0.1599
-5.1043 Langschläfer	-0.1557
-4.8028 Laptop	-0.1251
-5.1043 Last	-0.1601
-5.1043 Lasterlöchli	-0.1601
-4.5018 Lauerbach	-0.2256
-5.1043 Lauf	-0.1600
-4.8028 Laufe	-0.4240
-5.1043 Laune	-0.1252
-5.1043 Lautsprecher	-0.1601
-5.1043 Lebensabschnittsgefährte	-0.1601
-5.1043 Lennertz	-0.1578
-5.1043 Letzt	-0.1465
-4.4049 Leute	-0.1536
-5.1043 Leuten	-0.1536
-5.1043 Liebste	-0.1418
-5.1043 Liegewagen	-0.1252
-4.8028 Liesen	-0.4239
-4.8028 Linderhof	-0.1242
-5.1043 Linienflügen	-0.1591
-4.8028 List	-0.4135
-3.8997 Liste	-0.2020
-4.6267 Loccumer	-0.1543
-3.5598 Loccumer-Hof	-0.1854
-5.1043 Lokalität	-0.1601
-5.1043 Lokalitäten	-0.1595
-4.8028 London	-0.1514
-5.1043 Los-Banditos-Bar	-0.1563
-5.1043 Lotter	-0.1599
-5.1043 Lotto	-0.1601
-4.2588 Lotz	-0.4287
-4.8028 Lu	-0.1537
-5.1043 Ludwig	-0.1601
-4.4049 Luft	-0.1172
-4.8028 Lufthansa	-0.1221
-5.1043 Lufthansaflug	-0.1252
-3.5018 Luisenhof	-0.2040
-4.8028 Lunch	-0.1586
-3.5598 Lust	-0.2746
-4.3257 Lutz	-0.3700
-4.3257 Luxus	-0.1829
-4.8028 Luxushotel	-0.1465
-5.1043 Luxusrestaurant	-0.1252
-5.1043 Lösung	-0.1536
-4.3257 Lück	-0.5508
-5.1043 Lücke	-0.1599
-5.1043 Lücken	-0.1601
-5.1043 M	-0.1597
-4.6267 Ma	-0.1553
-3.0547 Mai	-0.3208
-5.1043 Maier	-0.1599
-5.1043 Mailand	-0.1599
-5.1043 Maimoch	-0.1601
-4.1039 Maiwoche	-0.1175
-3.5854 Mal	-0.2092
-5.1043 Mallorca	-0.1601
-4.4049 Mann	-0.1098
-5.1043 Marienplatz	-0.1465
-4.8028 Marionettentheater	-0.1513
-3.7614 Maritim	-0.2278
-4.3257 Maritim-Grand-Hotel	-0.1365
-3.6889 Maritim-Hotel	-0.5453
-5.1043 Maritim-Hotels	-0.1579
-4.8028 Maritim-Stadthotel	-0.1451
-5.1043 Maritä	-0.1565
-2.7291 Mark	-0.5008
-4.6267 Markt	-0.1525
-4.6267 Marriott	-0.1429
-3.8251 Marriott-Hotel	-0.4074
-3.9899 Maschine	-0.3011
-4.3257 Matysiak	-0.5508
-4.5018 Mecklenheide	-0.4166
-5.1043 Meeting	-0.1568
-4.1496 Meier	-0.3427
-4.8028 Meinung	-0.1538
-4.5018 Menge	-0.1530
-5.1043 Mensch	-0.1584
-5.1043 Menschen	-0.1594
-4.8028 Mercure	-0.1104
-4.5018 Merkur	-0.1403
-3.6725 Messe	-0.2394
-5.1043 Messehalle	-0.1598
-5.1043 Mietautos	-0.1589
-5.1043 Mietwagen	-0.1252
-5.1043 Miles-and-More-Card	-0.1557
-4.5018 Minaty	-0.3809
-5.1043 Minibar	-0.1584
-5.1043 Minimum	-0.1593
-3.8734 Ministerin	-0.8313
-3.0035 Minuten	-0.4175
-5.1043 Miriam	-0.1465
-5.1043 Mit	-0.1252
-3.8997 Mittag	-0.2486
-4.2008 Mittagessen	-0.2040
-5.1043 Mittagsküche	-0.1560
-4.8028 Mittagszeit	-0.1250
-3.6267 Mitte	-0.3031
-5.1043 Mittel	-0.1252
-5.1043 Mittelklas	-0.1557
-4.4049 Mittelklasse	-0.1121
-4.8028 Mitteln	-0.1516
-5.1043 Mittelstands-Hotel	-0.1599
-5.1043 Mittw	-0.1565
-2.9800 Mittwoch	-0.4332
-4.5018 Modalitäten	-0.1526
-5.1043 Moers	-0.1550
-3.3404 Moment	-0.2476
-5.1043 Momentchen	-0.1557
-5.1043 Mon	-0.1252
-4.1039 Monat	-0.1126
-4.2588 Monate	-0.1161
-3.8486 Monaten	-0.1026
-4.6267 Monats	-0.1566
-5.1043 Mont	-0.1565
-2.9307 Montag	-0.4992
-4.1496 Morgen	-0.3113
-4.1496 Much	-0.3362
-4.2588 Muschweck	-0.4516
-5.1043 Museen	-0.1536
-5.1043 Museum	-0.1574
-5.1043 Musical	-0.1600
-5.1043 Musicalfan	-0.1593
-4.6267 Musicals	-0.1520
-5.1043 Mutterhaus	-0.1578
-5.1043 Muße	-0.1589
-5.1043 Mädels	-0.1594
-5.1043 Männern	-0.1601
-3.5987 März	-0.2820
-4.2008 Märzwoche	-0.0957
-5.1043 Mögliche	-0.1586
-5.1043 Möglichen	-0.1252
-3.5854 Möglichkeit	-0.2033
-3.9278 Möglichkeiten	-0.0841
-5.1043 Mü	-0.1565
-3.7816 Müller	-0.2425
-4.4049 Müller-Elektronik	-0.4742
-3.1901 München	-0.4938
-5.1043 Münchens	-0.1252
-4.6267 N	-0.1553
-4.5018 Nachfrage	-0.2610
-3.7816 Nachmittag	-0.1451
-5.1043 Nachricht	-0.1252
-3.6725 Nacht	-0.2091
-4.6267 Nachtleben	-0.1518
-4.8028 Nachtzug	-0.1591
-3.4411 Name	-0.6880
-4.5018 Namen	-0.1470
-4.6267 Nebel	-0.1493
-5.1043 Nebels	-0.1584
-5.1043 Nebeneffekt	-0.1589
-4.8028 Neckermann	-0.1601
-5.1043 Nerven	-0.1532
-5.1043 Nettes	-0.1595
-5.1043 Neujahr	-0.1596
-5.1043 Nich	-0.1252
-5.1043 Nichtrau	-0.1601
-3.9899 Nichtraucher	-0.6480
-5.1043 Nichtraucher-Abteil	-0.1252
-3.9899 Nichtraucher-Etage	-0.2043
-5.1043 Nichtraucher-Zimmer	-0.1536
-5.1043 Nichtraucherin	-0.1252
-4.2588 Nikolaus	-0.1570
-5.1043 Nikolaus-Treffen	-0.1252
-5.1043 No	-0.1539
-4.6267 Nonnenstraße	-0.2820
-4.8028 Norddeutschen	-0.1556
-4.4049 Not	-0.0976
-4.8028 Notfall	-0.1558
-4.8028 Notiz	-0.1532
-5.1043 Notlösung	-0.1599
-5.1043 Novemb	-0.1565
-3.1354 November	-0.3023
-4.0625 Novemberwoche	-0.1381
-5.1043 Nudelgerichte	-0.1252
-4.6267 Nummer	-0.1517
-5.1043 Nummern	-0.1601
-5.1043 Nä	-0.1599
-4.1039 Nächte	-0.1491
-5.1043 Nägel	-0.1574
-3.4411 Nähe	-0.5242
-4.8028 Näheres	-0.1598
-3.8997 Nähler	-0.2496
-3.7614 Nöhre	-0.3350
-5.1043 Nöten	-0.1595
-4.8028 Nürnberg	-0.1583
-5.1043 Ohr	-0.1584
-4.8028 Ohren	-0.1587
-3.1744 Oktober	-0.1800
-5.1043 Oktoberwoche	-0.1588
-4.4049 Oktoberwochen	-0.1547
-5.1043 Op	-0.1565
-3.7816 Oper	-0.2589
-5.1043 Operette	-0.1557
-5.1043 Option	-0.1576
-5.1043 Orchester	-0.1597
-2.9866 Ordnung	-0.4400
-3.5018 Ort	-0.2747
-5.1043 Ortmeier	-0.1594
-5.1043 Ortskern	-0.1600
-5.1043 Osterferien	-0.1574
-4.8028 Ostermontag	-0.4239
-4.2588 Ostern	-0.1793
-4.8028 Ostertage	-0.1600
-4.6267 Otto	-0.3172
-5.1043 P	-0.1601
-5.1043 Packen	-0.1532
-5.1043 Paris	-0.1601
-5.1043 Park	-0.1601
-5.1043 Park-Hotel	-0.1578
-5.1043 Parkanlage	-0.1557
-3.7237 Parkhotel	-0.2964
-5.1043 Parkmöglichkeit	-0.1579
-5.1043 Parkmöglichkeiten	-0.1252
-3.6415 Parkplatz	-0.1569
-5.1043 Parkplatzsuche	-0.1579
-5.1043 Parteien	-0.1598
-4.4049 Partner	-0.1529
-5.1043 Paula	-0.1601
-4.6267 Paulson	-0.5775
-4.3257 Payome	-0.1049
-3.9577 Peikert	-0.2142
-5.1043 Peimann	-0.1568
-3.9899 Pelikan	-0.2332
-5.1043 Pendlern	-0.1591
-5.1043 Pension	-0.1601
-4.6267 Person	-0.1222
-4.8028 Personen	-0.1250
-5.1043 Peter	-0.1601
-4.4049 Petermann	-0.4744
-5.1043 Pf	-0.1574
-5.1043 Philharmonie	-0.1550
-4.8028 Piano-Bar	-0.1601
-3.8486 Pianobar	-0.2747
-4.8028 Picasso-Ausstellung	-0.1211
-4.6267 Piste	-0.1225
-4.4049 Plan	-0.1040
-5.1043 Planungen	-0.1600
-4.0625 Platz	-0.1363
-5.1043 Platzkarten	-0.1599
-4.4049 Plecas	-0.3193
-4.8028 Plätzchen	-0.1563
-4.1496 Plätze	-0.2770
-5.1043 Pool	-0.1252
-5.1043 Porsche	-0.1598
-4.8028 Portier	-0.1577
-5.1043 Positive	-0.1576
-5.1043 Potsdam	-0.1599
-4.8028 Praktikantin	-0.1559
-3.4911 Preis	-0.2915
-3.8734 Preise	-0.2176
-4.6267 Preisen	-0.1241
-3.6415 Preiskategorie	-0.2190
-5.1043 Preiskategorien	-0.1600
-3.7816 Preisklasse	-0.1590
-4.6267 Preisklassen	-0.1493
-4.5018 Preislage	-0.1130
-5.1043 Preislagen	-0.1579
-5.1043 Preisunterschied	-0.1589
-5.1043 Preisunterschiede	-0.1252
-5.1043 Preisverhältnisse	-0.1252
-4.8028 Preisvorstellungen	-0.1536
-5.1043 Premiere	-0.1584
-5.1043 Prin	-0.1568
-5.1043 Prinzen	-0.1601
-4.6267 Prinzen-Hotel	-0.1463
-3.6725 Prinzenhof	-0.2913
-3.9899 Prinzenhof-Hotel	-0.3192
-4.5018 Prinzip	-0.1523
-5.1043 Privatauto	-0.1252
-5.1043 Privatsache	-0.1595
-5.1043 Privatsphäre	-0.1600
-3.1796 Problem	-0.3106
-4.5018 Probleme	-0.2303
-5.1043 Produktion	-0.1575
-5.1043 Produktpräsentation	-0.1595
-3.7421 Programm	-0.1782
-4.5018 Programme	-0.2698
-5.1043 Programmpunkt	-0.1532
-4.8028 Projekt	-0.1104
-5.1043 Projekten	-0.1252
-4.5018 Prospekt	-0.2368
-4.5018 Prospekte	-0.1590
-5.1043 Prospektmaterial	-0.1600
-5.1043 Präferenz	-0.1252
-5.1043 Präferenzen	-0.1581
-4.5018 Puchta	-0.2298
-5.1043 Punkt	-0.1568
-5.1043 Punkte	-0.1587
-5.1043 Putz	-0.1593
-5.1043 Päckchen	-0.1599
-5.1043 Qualität	-0.1536
-4.0247 Quartal	-0.1879
-5.1043 Quatsch	-0.1252
-5.1043 Quere	-0.1599
-5.1043 R	-0.1600
-4.2008 Rahmen	-0.2869
-5.1043 Rang	-0.1532
-5.1043 Rathaus	-0.1252
-4.1039 Raucher	-0.3699
-5.1043 Raum	-0.1593
-5.1043 Rausch	-0.1465
-5.1043 Re	-0.1565
-5.1043 Rechnung	-0.1576
-4.8028 Rechnungsabteilung	-0.1537
-4.8028 Rechnungsprüfer	-0.1181
-4.8028 Recht	-0.1276
-4.4049 Reichel	-0.3241
-4.5018 Reihe	-0.1573
-3.4318 Reise	-0.4089
-4.8028 Reiseagentur	-0.1600
-5.1043 Reisebuchung	-0.1587
-5.1043 Reisebudget	-0.1600
-4.0247 Reisebüro	-0.2260
-5.1043 Reisedauer	-0.1601
-5.1043 Reisekosten-Abrechnung	-0.1601
-5.1043 Reisemöglichkeiten	-0.1532
-4.6267 Reisen	-0.1592
-5.1043 Reisepläne	-0.1576
-4.2588 Reiser	-0.4443
-4.2008 Reisetermin	-0.1231
-4.6267 Reiseunterlagen	-0.3160
-5.1043 Reisezeiten	-0.1592
-5.1043 Renovierung	-0.1601
-4.8028 Reparatur	-0.1510
-5.1043 Reserv	-0.1252
-5.1043 Reservieren	-0.1600
-4.0247 Reservierung	-0.1536
-4.5018 Rest	-0.2691
-2.9366 Restaurant	-0.5188
-4.8028 Restaurantbesuche	-0.1240
-4.2008 Restaurants	-0.2631
-5.1043 Rezepte	-0.1252
-5.1043 Richtige	-0.1601
-4.1039 Richtung	-0.1449
-4.8028 Richtungen	-0.1053
-4.2588 Ripfel	-0.6062
-4.4049 Ritter	-0.1118
-5.1043 Rochusstraße	-0.1599
-4.5018 Rohde	-0.1235
-4.3257 Rolle	-0.1700
-5.1043 Rollen	-0.1600
-5.1043 Rollschuhen	-0.1252
-4.5018 Rosenmontag	-0.2608
-5.1043 Rouette	-0.1465
-3.7237 Royal	-0.3654
-4.1039 Ruhe	-0.1275
-4.8028 Ruhigeres	-0.1251
-5.1043 Ruhiges	-0.1578
-5.1043 Runden	-0.1600
-4.4049 Ruppert	-0.1894
-5.1043 Röhre	-0.1600
-4.6267 Rück	-0.1491
-4.8028 Rückf	-0.1251
-5.1043 Rückfahren	-0.1560
-5.1043 Rückfahrkarte	-0.1601
-5.1043 Rückfahrmöglichkeit	-0.1590
-3.8997 Rückfahrt	-0.1289
-5.1043 Rückfahrticket	-0.1597
-5.1043 Rückfliegen	-0.1583
-3.6725 Rückflug	-0.1862
-5.1043 Rückflugzeit	-0.1599
-5.1043 Rückflüge	-0.1601
-5.1043 Rückmeldung	-0.1588
-4.3257 Rückreise	-0.2171
-5.1043 Rückscha	-0.1565
-4.8028 Rücksprache	-0.1557
-5.1043 Rückverbindungen	-0.1560
-4.8028 Rückweg	-0.1249
-4.5018 S	-0.1216
-5.1043 Sa	-0.1565
-5.1043 Sabena	-0.1252
-3.8028 Sache	-0.2810
-4.1496 Sachen	-0.1878
-5.1043 Sams	-0.1601
-3.4911 Samstag	-0.1535
-5.1043 Sau	-0.1574
-5.1043 Saun	-0.1601
-3.0394 Sauna	-0.4333
-5.1043 Saunaangebot	-0.1595
-5.1043 Saunafan	-0.1590
-5.1043 Saunafreak	-0.1465
-4.6267 Saunagänger	-0.1165
-4.3257 Savoy	-0.1093
-5.1043 Sch	-0.1252
-5.1043 Schaffen	-0.1568
-5.1043 Schalter	-0.1593
-5.1043 Schande	-0.1550
-4.8028 Schauspiel	-0.1566
-5.1043 Scherz	-0.1588
-4.2008 Schiel	-0.3060
-5.1043 Schlaf	-0.1252
-5.1043 Schlafen	-0.1563
-5.1043 Schlafwagen	-0.1576
-5.1043 Schlimmste	-0.1601
-5.1043 Schlossgaststätte	-0.1581
-3.6567 Schlosshotel	-0.5461
-5.1043 Schlu	-0.1565
-5.1043 Schlummertrunk	-0.1252
-4.5018 Schluss	-0.1531
-5.1043 Schmarren	-0.1465
-4.1496 Schmidt	-0.4153
-4.5018 Schmitz	-0.2242
-5.1043 Schnulze	-0.1252
-5.1043 Schotten	-0.1601
-5.1043 Schreibtisch	-0.1532
-5.1043 Schritten	-0.1587
-4.5018 Schrot	-0.4217
-4.3257 Schröder	-0.3747
-4.8028 Schule	-0.1531
-5.1043 Schulung	-0.1563
-5.1043 Schuss	-0.1596
-4.5018 Schuster	-0.3901
-4.3257 Schwaiger	-0.0936
-5.1043 Schwarze	-0.1550
-4.6267 Schweiger	-0.1586
-4.3257 Schweizerhof	-0.1069
-4.8028 Schwierigkeiten	-0.1532
-5.1043 Schwierigste	-0.1597
-4.3257 Schwill	-0.2826
-4.1496 Schwimm	-0.3875
-3.3796 Schwimmbad	-0.4627
-5.1043 Schwimmen	-0.1599
-5.1043 Schwung	-0.1252
-5.1043 Schäden	-0.1601
-4.6267 Schönes	-0.1563
-5.1043 Se	-0.1601
-4.8028 Sebastian	-0.4241
-5.1043 Sechs-Uhr-Zug	-0.1588
-4.6267 Sedlmayer	-0.1244
-5.1043 Sehenswürdigkeiten	-0.1532
-4.6267 Seite	-0.1591
-5.1043 Sekre	-0.1252
-4.0625 Sekretär	-0.1969
-3.5357 Sekretärin	-0.1741
-4.8028 Sekretärinnen	-0.1553
-5.1043 Sekt	-0.1587
-5.1043 Sekunde	-0.1252
-5.1043 Seminar	-0.1418
-3.4411 September	-0.2705
-5.1043 Septemberwoche	-0.1532
-4.5018 Service	-0.1422
-5.1043 Shakespeare-in-Love	-0.1581
-5.1043 Sherry	-0.1252
-5.1043 Sicherheit	-0.1601
-1.9069 Sie	-0.5090
-5.1043 Sieben-Uhr-fünfzehn-Flieger	-0.1591
-5.1043 Siegfried	-0.1532
-4.2588 Siepmann	-0.1247
-5.1043 Sightseeing	-0.1588
-4.5018 Sinn	-0.1377
-5.1043 Sitze	-0.1560
-5.1043 Sitzen	-0.1600
-5.1043 Sitzplatz	-0.1252
-5.1043 Sitzplatzreservierung	-0.1595
-3.9577 Sitzung	-0.1762
-5.1043 Sitzungen	-0.1588
-5.1043 Sizilien	-0.1588
-5.1043 Snobs	-0.1252
-5.1043 Sol	-0.1600
-3.8486 Solarium	-0.4961
-4.5018 Sommer	-0.1547
-5.1043 Sommerferien	-0.1581
-5.1043 Sommermonaten	-0.1598
-5.1043 Sommertagen	-0.1252
-5.1043 Sommerurlaub	-0.1536
-5.1043 Sommerzeit	-0.1536
-5.1043 Sonderpreis	-0.1601
-5.1043 Sonnenstrahlen	-0.1568
-3.8251 Sonntag	-0.2449
-5.1043 Sorgenkind	-0.1598
-5.1043 Spazierengehen	-0.1599
-4.6267 Spaß	-0.1187
-4.1039 Specht	-0.2501
-5.1043 Speisewagen	-0.1598
-4.8028 Spesen	-0.1596
-5.1043 Speziellen	-0.1600
-5.1043 Spezielles	-0.1584
-4.6267 Spielplan	-0.1392
-5.1043 Spielraum	-0.1583
-4.6267 Sport	-0.1519
-5.1043 Sportmöglichkeit	-0.1601
-5.1043 Sprengel-Museum	-0.1563
-5.1043 Späteres	-0.1568
-5.1043 Spätnachmittag	-0.1589
-5.1043 St	-0.1252
-3.6267 Stadt	-0.1578
-5.1043 Stadtbroschüre	-0.1532
-5.1043 Stadtführer	-0.1591
-4.8028 Stadthotel	-0.1462
-5.1043 Stadtmitte	-0.1600
-4.8028 Stadtnähe	-0.1224
-5.1043 Stadtplan	-0.1600
-5.1043 Stadtzentrum	-0.1576
-4.6267 Stand	-0.1587
-4.8028 Standard	-0.1590
-5.1043 Standvorbereiten	-0.1587
-4.8028 Starlight-Express	-0.1577
-4.6267 Starr	-0.1188
-5.1043 Stelle	-0.1600
-4.4049 Sterne	-0.0961
-5.1043 Steuerberater	-0.1600
-5.1043 Stichwort	-0.1595
-5.1043 Stimmung	-0.1536
-5.1043 Stoßzeiten	-0.1536
-4.8028 Straße	-0.1598
-4.1496 Strecke	-0.2665
-4.8028 Strecken	-0.3891
-4.2588 Stress	-0.1748
-5.1043 Stränge	-0.1601
-5.1043 Stu	-0.1599
-5.1043 Studenten	-0.1560
-5.1043 Stuhl	-0.1598
-3.1848 Stunde	-0.3308
-3.0625 Stunden	-0.4108
-5.1043 Stundentakt	-0.1581
-3.9899 Stück	-0.2223
-4.8028 Stücke	-0.1394
-5.1043 Stürme	-0.1584
-5.1043 Super-Kino	-0.1563
-4.8028 Susanne	-0.4241
-5.1043 Susen	-0.1565
-4.8028 Swimmingpool	-0.1177
-5.1043 Süden	-0.1588
-5.1043 T	-0.1565
-5.1043 Ta	-0.1574
-5.1043 Tabelle	-0.1587
-5.1043 Tablee	-0.1550
-4.8028 Tabu	-0.1498
-2.6677 Tag	-0.6361
-2.8344 Tage	-0.2850
-3.8997 Tagen	-0.1819
-4.8028 Tages	-0.1553
-5.1043 Tagesverfassung	-0.1591
-3.8997 Tagung	-0.0773
-4.8028 Tagungen	-0.1572
-4.8028 Tanja	-0.1251
-5.1043 Tanzen	-0.1465
-4.8028 Tarife	-0.1562
-4.8028 Tasche	-0.1600
-5.1043 Tasse	-0.1601
-5.1043 Tat	-0.1560
-4.0247 Taxi	-0.3921
-4.5018 Teil	-0.1527
-5.1043 Teilbereich	-0.1596
-5.1043 Telefon	-0.1600
-5.1043 Telefonat	-0.1495
-4.8028 Telefonnummer	-0.1228
-5.1043 Telefonnummern	-0.1595
-5.1043 Telefunken	-0.1601
-5.1043 Tennisturnier	-0.1532
-2.8683 Termin	-0.2881
-3.5598 Termine	-0.1946
-4.5018 Terminen	-0.1208
-5.1043 Termingestaltung	-0.1600
-3.4226 Terminkalender	-0.2303
-5.1043 Terminknappheit	-0.1576
-4.2588 Terminplan	-0.1141
-5.1043 Terminplaner	-0.1601
-5.1043 Terminplanung	-0.1563
-5.1043 Terminpläne	-0.1586
-4.8028 Termins	-0.1556
-5.1043 Ternim	-0.1595
-3.9899 Terrasse	-0.3479
-5.1043 Tessmann	-0.1563
-5.1043 Thalia-Theater	-0.1252
-5.1043 The	-0.1596
-3.0035 Theater	-0.4135
-5.1043 Theaterangebote	-0.1601
-5.1043 Theateraufführung	-0.1565
-4.4049 Theaterbesuch	-0.2018
-5.1043 Theaterfan	-0.1495
-5.1043 Theaterinformationen	-0.1601
-4.3257 Theaterkarten	-0.2244
-4.4049 Theaterprogramm	-0.1484
-5.1043 Theaterprogramme	-0.1576
-5.1043 Theaters	-0.1252
-5.1043 Theaterstadt	-0.1584
-5.1043 Theaterstück	-0.1601
-5.1043 Theaterszene	-0.1563
-4.8028 Theatertermin	-0.1577
-5.1043 Theatertermine	-0.1578
-5.1043 Theaterveranstaltungen	-0.1559
-5.1043 Theatralisches	-0.1576
-4.8028 Thema	-0.1527
-5.1043 Themen	-0.1559
-4.1496 Thomas	-0.2081
-4.5018 Thüringer-Hof	-0.1529
-4.4049 Ticket	-0.1584
-3.8997 Tickets	-0.1023
-5.1043 Tips	-0.1600
-4.2008 Tisch	-0.2026
-4.2008 Tochter	-0.2194
-5.1043 Toskana	-0.1588
-5.1043 Tourismus	-0.1563
-5.1043 Tourismus-Führer	-0.1598
-5.1043 Tourist-Information	-0.1576
-5.1043 Transfer	-0.1252
-5.1043 Transportmittel	-0.1252
-5.1043 Transportmöglichkeiten	-0.1495
-5.1043 Treff-Europa	-0.1601
-4.8028 Treff-Hotel-Europa	-0.1564
-4.4049 Treffen	-0.3194
-5.1043 Treffer	-0.1589
-5.1043 Treffpunkt	-0.1252
-4.8028 Treffpunkte	-0.1591
-5.1043 Trenntür	-0.1252
-4.8028 Trinken	-0.4230
-5.1043 Trouble	-0.1563
-5.1043 Truman-Show	-0.1560
-5.1043 Turbulenzen	-0.1584
-5.1043 TÜV-Termin	-0.1569
-5.1043 Tür	-0.1495
-5.1043 Türen	-0.1418
-5.1043 U	-0.1594
-4.2008 Udelhofen	-0.5709
-4.2008 Ueding	-0.3769
-2.2068 Uhr	-0.6958
-4.1496 Uhrzeit	-0.1492
-5.1043 Uhrzeiten	-0.1597
-5.1043 Umbau	-0.1252
-5.1043 Umland	-0.1252
-5.1043 Umsteigen	-0.1588
-5.1043 Umstände	-0.1600
-4.5018 Umständen	-0.1412
-5.1043 Umweg	-0.1252
-4.8028 Umwelt	-0.1251
-4.8028 Un	-0.1540
-5.1043 Unangenehme	-0.1589
-4.8028 Unfall	-0.1586
-5.1043 Unfallquoten	-0.1584
-5.1043 Unfälle	-0.1589
-5.1043 Unfällen	-0.1560
-5.1043 Unk	-0.1601
-5.1043 Unterbringung	-0.1563
-5.1043 Unterhaltsames	-0.1532
-3.5128 Unterkunft	-0.1636
-4.8028 Unterkunfts	-0.4215
-4.8028 Unterkunftsverzeichnis	-0.1431
-4.6267 Unterkünfte	-0.1350
-4.8028 Unterkünften	-0.1559
-3.7614 Unterlagen	-0.1544
-5.1043 Unternehmen	-0.1595
-5.1043 Unternehmung	-0.1569
-5.1043 Unternehmungsmöglichkeiten	-0.1563
-4.5018 Unterschied	-0.1387
-4.8028 Unterschiede	-0.1440
-3.0035 Urlaub	-0.3876
-5.1043 Urlaubs	-0.1570
-5.1043 Urlaubszeit	-0.1465
-5.1043 Vahrenwald	-0.1597
-4.8028 Ver	-0.1600
-5.1043 Veranstalter	-0.1588
-5.1043 Veranstaltung	-0.1598
-4.6267 Veranstaltungen	-0.1215
-4.5018 Veranstaltungskalender	-0.1384
-5.1043 Veranstaltungskalenders	-0.1252
-5.1043 Veranstaltungsplan	-0.1576
-3.5854 Verbindung	-0.2195
-3.5598 Verbindungen	-0.2166
-5.1043 Verbmobil	-0.1465
-3.8251 Verfügung	-0.4279
-4.8028 Vergleich	-0.4229
-4.8028 Vergnügen	-0.1601
-5.1043 Vergnügungen	-0.1569
-5.1043 Verhandlungen	-0.1563
-4.8028 Verkehr	-0.1559
-5.1043 Verkehrs	-0.1601
-5.1043 Verkehrsanbindung	-0.1252
-5.1043 Verkehrsanbindungen	-0.1532
-4.1039 Verkehrsmittel	-0.1712
-4.6267 Verkehrsmitteln	-0.1534
-4.4049 Verkehrsverbindung	-0.2360
-4.8028 Verkehrsverbindungen	-0.1557
-4.8028 Verlängerung	-0.1465
-5.1043 Verpflichtungen	-0.1252
-5.1043 Versammlung	-0.1252
-4.8028 Verspätungen	-0.1177
-5.1043 Vertrauen	-0.1532
-5.1043 Verzögerungen	-0.1601
-4.2008 Video	-0.3370
-4.4049 Videoraum	-0.3594
-3.6725 Viertel	-1.2699
-4.8028 Viertelstunde	-0.1591
-5.1043 Visitenkarte	-0.1601
-3.8251 Voggesser	-0.2532
-5.1043 Vollen	-0.1252
-4.8028 Vollpension	-0.1250
-5.1043 Volltreffer	-0.1465
-5.1043 Voraussicht	-0.1550
-5.1043 Vorbehalt	-0.1418
-5.1043 Vordermann	-0.1600
-4.8028 Vorfeld	-0.1227
-5.1043 Vorführungen	-0.1600
-5.1043 Vorlaufzeit	-0.1252
-4.5018 Vorliebe	-0.1574
-4.2588 Vorlieben	-0.1685
-3.9577 Vormittag	-0.2279
-5.1043 Vormittags	-0.1252
-5.1043 Vormittägliches	-0.1601
-5.1043 Vorname	-0.1252
-5.1043 Vorrang	-0.1579
-3.5724 Vorschlag	-0.3616
-3.8734 Vorschläge	-0.2436
-5.1043 Vorschlägen	-0.1600
-4.8028 Vorstellung	-0.1251
-4.6267 Vorstellungen	-0.1170
-4.3257 Vorteil	-0.2803
-4.6267 Vorteile	-0.1573
-5.1043 Vorweihnachtszeit	-0.1550
-5.1043 Vorzimmer	-0.1574
-5.1043 Vorzugung	-0.1252
-4.8028 Vorzüge	-0.1550
-5.1043 Wagen	-0.1576
-4.4049 Wahl	-0.1015
-4.6267 Wahnsinn	-0.1052
-4.6267 Walch	-0.1408
-5.1043 Wartezeiten	-0.1593
-5.1043 Wasser	-0.1601
-5.1043 Wasserstraße	-0.1596
-5.1043 Web-Seite	-0.1595
-4.3257 Weber	-0.5431
-4.1496 Weg	-0.1965
-5.1043 Wegener	-0.1465
-4.8028 Weggehen	-0.1246
-4.3257 Wegner	-0.2055
-5.1043 Weiberfastnacht	-0.1532
-4.0625 Weihnachten	-0.0843
-5.1043 Weihnachtseinkäufen	-0.1601
-5.1043 Weihnachtsfeier	-0.1584
-5.1043 Weihnachtsfeiern	-0.1559
-4.8028 Weihnachtsmarkt	-0.1567
-5.1043 Weihnachtstage	-0.1581
-5.1043 Weihnachtszeit	-0.1600
-4.8028 Weile	-0.1249
-5.1043 Weim	-0.1601
-4.8028 Wein	-0.1251
-5.1043 Weinchen	-0.1601
-5.1043 Weise	-0.1581
-4.8028 Weisheitszähne	-0.1601
-5.1043 Weisheitszähnen	-0.1252
-4.4049 Weitere	-0.3263
-4.8028 Welt	-0.1551
-5.1043 Weltmetropole	-0.1578
-5.1043 Werktagen	-0.1599
-4.3257 Wert	-0.3139
-4.2588 Wesenick	-0.4436
-5.1043 Wetter	-0.1532
-4.8028 Wichtigste	-0.1565
-5.1043 Wie	-0.1418
-4.5018 Wieder	-0.1396
-3.3635 Wiederhören	-1.0132
-3.4411 Wiederschauen	-1.2858
-2.8510 Wiedersehen	-2.3634
-4.6267 Wien	-0.1274
-4.5018 Wilke	-0.1177
-4.8028 Wilkes	-0.1104
-4.4049 Willen	-0.1060
-5.1043 Wind	-0.1585
-5.1043 Winter	-0.1599
-5.1043 Wo	-0.1599
-5.1043 Woch	-0.1601
-3.1261 Woche	-0.2017
-3.8997 Wochen	-0.1307
-3.3330 Wochenende	-0.1771
-5.1043 Wochenenden	-0.1601
-4.6267 Wochenhälfte	-0.1513
-5.1043 Wochentag	-0.1252
-5.1043 Wochentagen	-0.1563
-4.8028 Wochenteil	-0.1251
-4.6267 Wolfrum	-0.1528
-5.1043 Wort	-0.1595
-4.8028 Wunsch	-0.1241
-5.1043 Wunschtermin	-0.1252
-4.8028 Wurscht	-0.1104
-4.4049 Wünsche	-0.2114
-5.1043 Wünschen	-0.1601
-5.1043 Z	-0.1574
-5.1043 Zahl	-0.1465
-5.1043 Zahlen	-0.1252
-4.1496 Zahnarzt	-0.2123
-4.2008 Zahnarzttermin	-0.2080
-4.4049 Zanker	-0.7395
-5.1043 Zei	-0.1589
-2.6355 Zeit	-0.2606
-5.1043 Zeitdruck	-0.1584
-4.4049 Zeiten	-0.1228
-5.1043 Zeitersparnis	-0.1465
-4.6267 Zeitgründen	-0.1216
-5.1043 Zeitnot	-0.1565
-5.1043 Zeitplan	-0.1601
-4.1496 Zeitpunkt	-0.2008
-4.4049 Zeitraum	-0.1207
-4.8028 Zeitung	-0.4172
-5.1043 Zelt	-0.1600
-3.6567 Zentral	-0.4490
-5.1043 Zentral-Hotel	-0.1563
-3.6567 Zentrum	-0.1889
-5.1043 Zentrumsnähe	-0.1550
-5.1043 Zerstreuung	-0.1563
-4.8028 Zettel	-0.1565
-5.1043 Zigaretten	-0.1252
-5.1043 Zigarre	-0.1569
-3.5241 Zimmer	-0.2104
-4.8028 Zimmern	-0.1537
-5.1043 Zimmerpreise	-0.1601
-5.1043 Zimmerreservierung	-0.1599
-4.8028 Zu	-0.1212
-5.1043 Zufall	-0.1599
-2.5920 Zug	-0.3528
-5.1043 Zuges	-0.1465
-4.6267 Zugfahren	-0.1542
-5.1043 Zugfahrkarten	-0.1510
-4.8028 Zugfahrplan	-0.1512
-4.8028 Zugfahrpläne	-0.1534
-4.2008 Zugfahrt	-0.1660
-5.1043 Zugfahrten	-0.1252
-5.1043 Zugstrecke	-0.1592
-5.1043 Zugticket	-0.1597
-5.1043 Zugv	-0.1600
-5.1043 Zugverbin	-0.1565
-3.8251 Zugverbindung	-0.2465
-3.7421 Zugverbindungen	-0.2156
-5.1043 Zukunft	-0.1599
-5.1043 Zum-Funkturm	-0.1465
-5.1043 Zum-Goldenen-Löwen	-0.1465
-5.1043 Zum-Löwen	-0.1579
-5.1043 Zurückflug	-0.1577
-5.1043 Zusammenhang	-0.1465
-4.4049 Zuschlag	-0.0952
-5.1043 Zustand	-0.1601
-5.1043 Zuzahlung	-0.1252
-4.6267 Zwecke	-0.1584
-5.1043 Zwei-Stunden-Takt	-0.1591
-5.1043 Zweifelsfall	-0.1591
-4.8028 Zwischenfrage	-0.1559
-3.6567 Züge	-0.2796
-4.8028 Zügen	-0.1549
-3.8734 a	-0.2662
-2.6536 ab	-0.6366
-3.3115 abend	-0.2156
-2.8997 abends	-0.2533
-2.3963 aber	-0.2734
-5.1043 abf	-0.1601
-4.5018 abfahren	-0.3816
-5.1043 abfliegen	-0.1581
-5.1043 abfährt	-0.1252
-5.1043 abgearbeitet	-0.1595
-5.1043 abgeblieben	-0.1577
-5.1043 abgegangen	-0.1584
-5.1043 abgehakt	-0.1539
-4.8028 abgehen	-0.1500
-5.1043 abgeholt	-0.1595
-5.1043 abgeht	-0.1252
-5.1043 abgelegen	-0.1596
-5.1043 abgelenkt	-0.1597
-4.5018 abgeneigt	-0.1033
-5.1043 abgeschlossen	-0.1579
-5.1043 abgesehen	-0.1600
-5.1043 abgespannt	-0.1590
-4.8028 abgesprochen	-0.1579
-5.1043 abgestimmt	-0.1589
-4.5018 abhalten	-0.1146
-4.1039 abholen	-0.3806
-5.1043 abhängig	-0.1252
-5.1043 abkapseln	-0.1583
-5.1043 abkläre	-0.1587
-4.8028 abklären	-0.1583
-5.1043 abrechnen	-0.1597
-4.5018 abreisen	-0.3930
-5.1043 abrunden	-0.1559
-4.6267 absagen	-0.1544
-5.1043 absetzen	-0.1591
-4.6267 absolut	-0.3117
-4.8028 absolvieren	-0.4238
-4.1496 absprechen	-0.2742
-5.1043 abstei	-0.1252
-5.1043 absteigen	-0.1579
-5.1043 absteigt	-0.1465
-5.1043 abstellen	-0.1532
-5.1043 abstimmen	-0.1587
-5.1043 abwechseln	-0.1584
-5.1043 abwechselnd	-0.1589
-5.1043 abzulenken	-0.1252
-5.1043 abzureisen	-0.1569
-5.1043 abzusprechen	-0.1585
-5.1043 abzwicken	-0.1581
-2.7837 ach	-0.5696
-2.9833 acht	-0.7397
-4.3257 achte	-0.1736
-3.4049 achten	-0.3059
-3.8997 achter	-0.4854
-4.6267 achtunddreißig	-0.3148
-3.6267 achtundfünfzig	-0.2424
-5.1043 achtundneun	-0.1599
-3.9899 achtundneunzig	-0.3996
-4.3257 achtundsiebzig	-0.1124
-3.8251 achtundvierzig	-0.6479
-5.1043 achtundzwanzig	-0.1601
-4.5018 achtundzwanzigste	-0.3888
-3.5128 achtundzwanzigsten	-0.3422
-3.8028 achtundzwanzigster	-0.5577
-3.1082 achtzehn	-1.0592
-5.1043 achtzehnte	-0.1601
-3.8028 achtzehnten	-0.1332
-4.5018 achtzehnter	-0.1233
-3.8251 achtzig	-0.6257
-2.9516 ah	-0.5965
-3.3404 aha	-0.6944
-4.8028 ahnen	-0.1251
-4.6267 aktuell	-0.1575
-4.8028 aktuellen	-0.1601
-5.1043 akut	-0.1252
-5.1043 akzeptabel	-0.1592
-5.1043 akzeptieren	-0.1559
-5.1043 al	-0.1252
-5.1043 all	-0.1583
-3.4704 alle	-0.3529
-4.8028 allein	-0.1577
-4.6267 alleine	-0.1410
-4.0247 allem	-0.2168
-4.8028 allen	-0.1594
-3.2118 allerdings	-0.3149
-5.1043 allergisch	-0.1599
-5.1043 allergünstigsten	-0.1587
-5.1043 allerletzte	-0.1601
-5.1043 allerliebsten	-0.1570
-4.8028 allerspätestens	-0.1598
-2.8534 alles	-0.4560
-4.0247 allzu	-0.2306
-5.1043 allzuviel	-0.1597
-5.1043 allzuweit	-0.1565
-3.2977 als	-0.1931
-1.9987 also	-0.3783
-4.8028 alte	-0.1601
-4.8028 alternativ	-0.1583
-2.1396 am	-0.9503
-2.7094 an	-0.3506
-3.6125 anbieten	-0.3517
-5.1043 anbietet	-0.1593
-3.7421 andere	-0.1685
-5.1043 anderem	-0.1600
-3.9577 anderen	-0.2093
-5.1043 anderer	-0.1600
-5.1043 andererseits	-0.1252
-3.9899 anderes	-0.2517
-3.8734 andern	-0.2499
-4.2588 anders	-0.1284
-5.1043 andersrum	-0.1589
-3.8028 anderthalb	-0.8278
-5.1043 anderweitig	-0.1600
-5.1043 anderweitigen	-0.1599
-4.4049 andre	-0.1561
-4.8028 andren	-0.1555
-4.6267 andres	-0.3063
-5.1043 anfahre	-0.1594
-4.6267 anfangen	-0.2810
-5.1043 anfragen	-0.1597
-5.1043 anfällt	-0.1597
-4.8028 angeben	-0.1414
-4.5018 angeboten	-0.1224
-4.8028 angebracht	-0.3891
-5.1043 angebrachter	-0.1584
-5.1043 angebunden	-0.1532
-5.1043 angefordert	-0.1557
-5.1043 angefüllt	-0.1252
-4.8028 angegeben	-0.1251
-4.6267 angeht	-0.1109
-5.1043 angekommen	-0.1595
-4.4049 angemessen	-0.1219
-3.9577 angenehm	-0.2635
-4.8028 angenehme	-0.1591
-5.1043 angenehmen	-0.1565
-4.1496 angenehmer	-0.3316
-5.1043 angenommen	-0.1465
-5.1043 angerufen	-0.1532
-4.8028 angesagt	-0.1181
-5.1043 angesammelt	-0.1595
-4.8028 angewiesen	-0.1584
-5.1043 angucken	-0.1596
-5.1043 anhand	-0.1601
-5.1043 anhören	-0.1252
-3.9899 ankommen	-0.1949
-5.1043 ankommt	-0.1510
-4.5018 ankucken	-0.2308
-5.1043 anlernen	-0.1584
-5.1043 anläuft	-0.1252
-4.8028 anmelden	-0.1233
-4.8028 annehmbar	-0.1224
-5.1043 annehmen	-0.1252
-5.1043 anpeilen	-0.1252
-4.4049 anreisen	-0.1923
-3.9278 anrufen	-0.2516
-5.1043 ans	-0.1252
-4.0247 anschauen	-0.3234
-5.1043 anschaut	-0.1600
-4.8028 anschließen	-0.1458
-4.6267 anschließend	-0.1541
-4.6267 ansehen	-0.2748
-5.1043 ansetzen	-0.1599
-5.1043 anson	-0.1418
-3.7816 ansonsten	-0.1653
-5.1043 anspreche	-0.1465
-4.6267 ansprechen	-0.1525
-5.1043 anstehen	-0.1252
-5.1043 anstehende	-0.1600
-4.8028 anstehenden	-0.1599
-4.6267 ansteht	-0.1147
-5.1043 anstrengen	-0.1563
-4.3257 anstrengend	-0.1131
-5.1043 anstrengende	-0.1601
-4.8028 anstrengenden	-0.1598
-5.1043 anstrengender	-0.1598
-5.1043 antanzen	-0.1597
-5.1043 antreffe	-0.1252
-4.2588 antreten	-0.1602
-5.1043 antun	-0.1559
-5.1043 anwesend	-0.1595
-4.1039 anzubieten	-0.1804
-5.1043 anzugucken	-0.1570
-4.2008 arbeiten	-0.1479
-4.8028 arg	-0.1595
-5.1043 arme	-0.1601
-4.5018 arrangieren	-0.2215
-5.1043 as	-0.1594
-5.1043 at	-0.1596
-5.1043 attraktiv	-0.1592
-4.2008 au	-0.1612
-2.0193 auch	-0.3898
-2.4848 auf	-0.6697
-5.1043 aufge	-0.1601
-5.1043 aufgedreht	-0.1536
-5.1043 aufgedrückt	-0.1252
-5.1043 aufgeschrieben	-0.1536
-5.1043 aufgesetzt	-0.1565
-5.1043 aufgezählt	-0.1579
-5.1043 aufkreuzen	-0.1465
-5.1043 aufnehmen	-0.1583
-5.1043 aufreißen	-0.1252
-5.1043 aufscheuchen	-0.1589
-5.1043 aufschieben	-0.1601
-5.1043 aufschreibe	-0.1510
-4.5018 aufschreiben	-0.1359
-4.3257 aufstehen	-0.1120
-4.6267 aufsuchen	-0.2796
-5.1043 auftauchen	-0.1252
-5.1043 auftaucht	-0.1252
-5.1043 aufweisen	-0.1418
-5.1043 aufwendig	-0.1465
-5.1043 aufwärts	-0.1565
-5.1043 aufzuhalten	-0.1557
-5.1043 aufzusuchen	-0.1465
-2.6630 aus	-0.3909
-5.1043 ausarbeiten	-0.1465
-4.8028 auschecken	-0.1440
-5.1043 ausdehnen	-0.1252
-5.1043 ausdenken	-0.1568
-5.1043 auseinander	-0.1465
-5.1043 ausfalle	-0.1581
-4.6267 ausfallen	-0.5779
-4.8028 ausfindig	-0.4239
-5.1043 ausführen	-0.1550
-5.1043 ausführlich	-0.1600
-5.1043 ausge	-0.1601
-4.2588 ausgebucht	-0.1084
-5.1043 ausgedrückt	-0.1600
-4.2008 ausgehen	-0.3049
-4.6267 ausgelastet	-0.3117
-5.1043 ausgelegt	-0.1252
-4.3257 ausgemacht	-0.1731
-5.1043 ausgerechnet	-0.1568
-5.1043 ausgesagt	-0.1563
-5.1043 ausgeschaut	-0.1532
-4.5018 ausgestattet	-0.2320
-4.4049 ausgesucht	-0.1162
-5.1043 ausgeweitete	-0.1601
-5.1043 ausgezeichnet	-0.1589
-5.1043 ausgiebiges	-0.1600
-5.1043 ausharren	-0.1583
-5.1043 auskennen	-0.1252
-4.8028 ausklingen	-0.4238
-5.1043 auslassen	-0.1591
-3.6889 ausmachen	-0.2338
-4.0247 ausmacht	-0.2455
-4.8028 ausnutzen	-0.1583
-5.1043 ausnützen	-0.1587
-4.6267 ausprobieren	-0.2676
-5.1043 ausprobiert	-0.1591
-4.8028 ausreichen	-0.1505
-5.1043 ausreichend	-0.1595
-4.8028 ausschauen	-0.3891
-4.5018 ausschaut	-0.2326
-4.2588 ausschlafen	-0.2014
-4.8028 aussehen	-0.3891
-4.2008 aussieht	-0.2228
-4.8028 ausspannen	-0.3891
-5.1043 aussprechen	-0.1584
-4.1039 aussuchen	-0.1137
-4.8028 austoben	-0.1177
-5.1043 ausverkauft	-0.1584
-4.6267 ausweichen	-0.2820
-5.1043 auswählen	-0.1583
-5.1043 auszudrucken	-0.1252
-5.1043 auszukennen	-0.1465
-5.1043 auszumachen	-0.1557
-4.2588 außer	-0.1483
-4.2588 außerdem	-0.1192
-3.8251 außerhalb	-0.2521
-4.1496 b	-0.1421
-5.1043 backen	-0.1532
-5.1043 bad	-0.1532
-3.8486 bald	-0.2783
-5.1043 ballen	-0.1592
-5.1043 barten	-0.1565
-4.8028 bauen	-0.1397
-4.5018 be	-0.1546
-5.1043 beachten	-0.1594
-5.1043 beanspruchen	-0.1252
-5.1043 beansprucht	-0.1597
-5.1043 bedacht	-0.1565
-3.6725 bedanke	-1.4474
-5.1043 bedauern	-0.1594
-5.1043 bedeuten	-0.1595
-5.1043 bedeutend	-0.1600
-4.8028 bedeutet	-0.1236
-5.1043 beeilen	-0.1510
-5.1043 beenden	-0.1589
-5.1043 befinden	-0.1532
-4.8028 befindet	-0.1501
-5.1043 befragen	-0.1589
-5.1043 befördert	-0.1601
-5.1043 begegnen	-0.1252
-5.1043 begeistern	-0.1583
-4.6267 begeistert	-0.1578
-5.1043 begießen	-0.1252
-5.1043 beginnen	-0.1565
-4.8028 beginnt	-0.1566
-4.8028 begrenzt	-0.1497
-5.1043 begutachten	-0.1587
-2.5476 bei	-0.9763
-5.1043 beibehalten	-0.1252
-3.6889 beide	-0.1442
-3.8734 beiden	-0.1862
-5.1043 beides	-0.1601
-5.1043 beilegen	-0.1418
-3.3796 beim	-0.4928
-5.1043 beinah	-0.1601
-4.8028 beinhaltet	-0.4215
-4.8028 beispielsweise	-0.1585
-4.1496 bekannt	-0.2017
-5.1043 bekannten	-0.1600
-4.3257 bekomme	-0.3920
-3.7421 bekommen	-0.2281
-5.1043 bekommt	-0.1532
-5.1043 belastet	-0.1589
-5.1043 belegen	-0.1252
-5.1043 belegt	-0.1536
-5.1043 belästige	-0.1547
-5.1043 bem	-0.1600
-5.1043 bemühe	-0.1465
-5.1043 bemühen	-0.1550
-5.1043 ben	-0.1601
-5.1043 benutze	-0.1600
-4.0625 benutzen	-0.2357
-5.1043 beordert	-0.1579
-4.5018 bequem	-0.1280
-5.1043 bequemen	-0.1591
-4.5018 bequemer	-0.1342
-5.1043 bequemes	-0.1570
-5.1043 bequemsten	-0.1510
-5.1043 beraten	-0.1598
-5.1043 berechnet	-0.1576
-5.1043 bereit	-0.1601
-5.1043 bereite	-0.1581
-5.1043 bereitet	-0.1252
-4.1039 bereits	-0.1797
-5.1043 bereitstellen	-0.1587
-5.1043 beruhigend	-0.1418
-5.1043 berühmte	-0.1596
-5.1043 beschaffen	-0.1536
-5.1043 beschränken	-0.1465
-5.1043 beschäftigen	-0.1599
-4.5018 beschäftigt	-0.1155
-5.1043 besetzt	-0.1465
-4.6267 besichtigen	-0.2814
-4.4049 besitzt	-0.1084
-4.8028 besondere	-0.1594
-4.5018 besonderen	-0.1550
-4.8028 besonderes	-0.1394
-4.2588 besonders	-0.1815
-4.5018 besorge	-0.2477
-3.8028 besorgen	-0.4185
-4.5018 besorgt	-0.1204
-3.6125 besprechen	-0.4184
-4.6267 besprochen	-0.1439
-3.3963 besser	-0.2115
-5.1043 besseres	-0.1553
-4.2008 beste	-0.0929
-5.1043 bestehe	-0.1587
-4.0625 bestehen	-0.5022
-4.4049 besteht	-0.3478
-4.6267 bestelle	-0.5646
-4.1039 bestellen	-0.2426
-3.2346 besten	-0.1830
-5.1043 bestens	-0.1252
-5.1043 bestimmen	-0.1252
-3.6725 bestimmt	-0.2508
-4.2588 bestimmte	-0.2206
-4.4049 bestimmten	-0.1585
-4.8028 bestimmtes	-0.1582
-4.8028 bestätige	-0.1490
-5.1043 besuch	-0.1601
-3.7237 besuchen	-0.1747
-4.5018 besucht	-0.1556
-5.1043 besur	-0.1600
-5.1043 besücht	-0.1601
-5.1043 betrachten	-0.1532
-4.6267 betragen	-0.5432
-4.5018 betrifft	-0.1169
-5.1043 betrinken	-0.1252
-3.8028 beträgt	-0.2872
-4.6267 betätigen	-0.1210
-5.1043 betäubt	-0.1589
-4.2588 bevor	-0.2672
-5.1043 bevorsteht	-0.1581
-4.6267 bevorzuge	-0.1463
-3.8997 bevorzugen	-0.2645
-5.1043 bewerkstelligen	-0.1252
-4.8028 bewusst	-0.1245
-4.8028 bewährt	-0.1440
-4.6267 bezahlen	-0.1144
-3.9278 bezahlt	-0.1336
-5.1043 bezieht	-0.1592
-5.1043 beziehungsw	-0.1252
-3.8486 beziehungsweise	-0.2285
-4.3257 bezüglich	-0.4250
-5.1043 biete	-0.1577
-4.1039 bieten	-0.1883
-3.9577 bietet	-0.1987
-4.1496 billig	-0.3286
-5.1043 billige	-0.1600
-5.1043 billigen	-0.1601
-4.1039 billiger	-0.2242
-5.1043 billigere	-0.1583
-5.1043 billigeren	-0.1600
-5.1043 billigeres	-0.1591
-4.4049 billigste	-0.1311
-5.1043 billigsten	-0.1592
-2.7112 bin	-0.5523
-5.1043 bindungen	-0.1601
-2.3904 bis	-0.7071
-5.1043 bisher	-0.1596
-2.9866 bisschen	-0.2224
-4.1496 bissel	-0.1586
-5.1043 bit	-0.1252
-3.4049 bitte	-0.2192
-5.1043 bitten	-0.1589
-5.1043 blaumachen	-0.1584
-5.1043 bleib	-0.1601
-5.1043 bleibe	-0.1465
-3.4806 bleiben	-0.4134
-3.8028 bleibt	-0.2902
-4.6267 bliebe	-0.1549
-4.1039 bloß	-0.2319
-4.8028 blöd	-0.1526
-5.1043 blöde	-0.1601
-5.1043 blüht	-0.1598
-5.1043 boah	-0.1252
-3.9899 brauche	-0.3621
-3.2910 brauchen	-0.3950
-4.0247 braucht	-0.2640
-5.1043 braungebrannt	-0.1568
-3.8486 bringen	-0.1773
-4.6267 bringt	-0.1581
-3.9577 bräuchte	-0.3872
-4.2588 bräuchten	-0.3503
-3.5357 buche	-0.8101
-3.0283 buchen	-0.4943
-4.2008 bucht	-0.2234
-5.1043 buchungen	-0.1536
-5.1043 bummeln	-0.1532
-5.1043 bäckt	-0.1596
-5.1043 bäm	-0.1598
-4.6267 cetera	-0.1223
-5.1043 chines	-0.1601
-5.1043 chinesischen	-0.1550
-5.1043 chinesisches	-0.1596
-5.1043 christlichere	-0.1591
-3.6725 d	-0.2490
-1.8302 da	-0.3763
-3.3796 dabei	-0.5221
-5.1043 dabeihabe	-0.1592
-5.1043 dabeihaben	-0.1581
-4.8028 dabeisein	-0.1244
-4.5018 dableiben	-0.1172
-4.0625 dachte	-0.2426
-4.6267 dachten	-0.5728
-5.1043 dadurch	-0.1589
-3.6125 dafür	-0.2590
-4.1496 dagegen	-0.2109
-5.1043 dah	-0.1583
-4.2588 daheim	-0.2857
-4.2588 daher	-0.2667
-3.8997 dahin	-0.1809
-4.8028 daliegen	-0.1532
-5.1043 damals	-0.1599
-3.3557 damit	-0.4880
-5.1043 dampfbaden	-0.1252
-3.5357 danach	-0.2239
-5.1043 daneben	-0.1601
-4.8028 dankbar	-0.1514
-3.3404 danke	-0.5586
-5.1043 danken	-0.1465
-1.6841 dann	-0.4354
-4.8028 daran	-0.1495
-4.0247 darauf	-0.1783
-5.1043 darauffolgenden	-0.1598
-3.9577 darf	-0.2455
-4.0625 darum	-0.6781
-4.8028 darüber	-0.1596
-1.5104 das	-0.5354
-2.5561 dass	-1.0089
-4.8028 dasselbe	-0.1249
-5.1043 daten	-0.1557
-3.7816 dauern	-0.1320
-5.1043 dauernd	-0.1601
-3.2526 dauert	-0.2123
-3.8486 davon	-0.2668
-5.1043 davontragen	-0.1598
-3.8997 davor	-0.1307
-3.9278 dazu	-0.1263
-5.1043 dazunehmen	-0.1252
-5.1043 dazurechnen	-0.1598
-4.2008 dazwischen	-0.1538
-5.1043 dazwischenkommen	-0.1579
-5.1043 dazwischenkommt	-0.1465
-5.1043 dazwischenschieben	-0.1559
-4.3257 de	-0.1145
-5.1043 definitiv	-0.1599
-5.1043 deklarieren	-0.1252
-5.1043 delegieren	-0.1592
-5.1043 deln	-0.1574
-2.3946 dem	-0.6673
-4.8028 dementsprechend	-0.1561
-3.9577 demnächst	-0.1865
-5.1043 demselben	-0.1600
-5.1043 demzufolge	-0.1597
-2.2650 den	-0.3688
-4.2008 denen	-0.1417
-2.7237 denke	-0.7179
-4.2588 denken	-0.3151
-2.4421 denn	-0.4278
-2.1175 der	-0.4224
-5.1043 dergleichen	-0.1252
-5.1043 dermaßen	-0.1601
-5.1043 derselbe	-0.1252
-5.1043 derselben	-0.1591
-5.1043 derweil	-0.1252
-5.1043 derzeit	-0.1584
-3.5987 des	-0.3061
-5.1043 desgleichen	-0.1599
-4.8028 deshalb	-0.1595
-3.9278 deswegen	-0.1404
-4.5018 deutlich	-0.1594
-4.8028 deutsche	-0.1601
-5.1043 di	-0.1547
-4.2008 dicht	-0.1159
-5.1043 dick	-0.1601
-2.0261 die	-0.2590
-4.5018 dienstags	-0.1511
-5.1043 dienstlich	-0.1593
-3.4507 diese	-0.2508
-4.8028 dieselbe	-0.1588
-4.0625 diesem	-0.1565
-3.8486 diesen	-0.2288
-3.9899 dieser	-0.3409
-3.5598 dieses	-0.4443
-3.7237 diesmal	-0.2189
-5.1043 dil	-0.1596
-5.1043 ding	-0.1600
-3.1694 direkt	-0.4310
-5.1043 direkte	-0.1601
-5.1043 direkten	-0.1601
-4.8028 diverse	-0.1601
-5.1043 do	-0.1252
-2.4487 doch	-0.3148
-4.5018 donnerstags	-0.1493
-4.6267 doof	-0.1102
-5.1043 doppel-$H	-0.1575
-5.1043 doppelt	-0.1601
-3.0104 dort	-0.2075
-5.1043 dorten	-0.1590
-4.2008 dorthin	-0.2350
-5.1043 dortigen	-0.1599
-5.1043 dr	-0.1597
-5.1043 dramatisch	-0.1252
-4.2588 dran	-0.0981
-5.1043 dranhängen	-0.1532
-3.4137 drauf	-0.3763
-5.1043 drauffolgende	-0.1592
-5.1043 draufhauen	-0.1252
-5.1043 draufstehen	-0.1532
-5.1043 draufzahle	-0.1532
-4.8028 draufzahlen	-0.4233
-5.1043 draus	-0.1252
-4.3257 draußen	-0.2589
-5.1043 dre	-0.1599
-5.1043 drehen	-0.1579
-2.7094 drei	-0.5450
-4.3257 dreieinhalb	-0.5654
-4.6267 dreien	-0.1185
-4.2008 dreihundert	-0.6128
-4.8028 dreimal	-0.4203
-4.8028 dreiundachtzig	-0.1592
-4.6267 dreiunddreißig	-0.1223
-4.8028 dreiundfünfzig	-0.1211
-5.1043 dreiundsechzig	-0.1593
-4.4049 dreiundsiebzig	-0.2358
-3.5854 dreiundvierzig	-0.2876
-5.1043 dreiundvierzigsten	-0.1601
-5.1043 dreiundzwanzig	-0.1583
-4.2588 dreiundzwanzigste	-0.2059
-3.4411 dreiundzwanzigsten	-0.3396
-4.0625 dreiundzwanzigster	-0.3868
-4.2008 dreiviertel	-0.2695
-5.1043 dreiz	-0.1596
-3.7059 dreizehn	-1.5552
-4.3257 dreizehnte	-0.1939
-3.5018 dreizehnten	-0.2632
-3.9278 dreizehnter	-0.2454
-3.4507 dreißig	-0.5202
-4.6267 dreißigste	-0.3100
-3.8486 dreißigsten	-0.2142
-4.4049 dreißigster	-0.4698
-5.1043 dri	-0.1600
-3.8486 drin	-0.1569
-4.6267 dringend	-0.1601
-5.1043 dringenden	-0.1601
-5.1043 dringender	-0.1601
-5.1043 dringendst	-0.1592
-4.8028 drinhängen	-0.1548
-5.1043 drinnen	-0.1601
-3.8734 dritte	-0.1495
-3.6725 dritten	-0.2283
-4.2008 dritter	-0.2634
-5.1043 drittes	-0.1465
-5.1043 droben	-0.1565
-4.8028 drucke	-0.1445
-3.7614 drum	-0.5915
-5.1043 drängen	-0.1589
-3.9899 drüber	-0.2184
-5.1043 drücke	-0.1581
-5.1043 ds	-0.1565
-5.1043 dudum	-0.1495
-5.1043 dumm	-0.1595
-5.1043 dunkel	-0.1536
-4.0625 durch	-0.2806
-5.1043 durcharbeiten	-0.1598
-3.9577 durchaus	-0.1869
-5.1043 durchchecken	-0.1559
-5.1043 durcheinander	-0.1252
-4.6267 durchfahren	-0.1185
-4.8028 durchführen	-0.1243
-5.1043 durchgedüst	-0.1590
-5.1043 durchgehen	-0.1560
-4.8028 durchgehend	-0.1443
-5.1043 durchgesagt	-0.1252
-5.1043 durchgucken	-0.1578
-5.1043 durchkriegen	-0.1252
-4.8028 durchsehen	-0.1236
-5.1043 durchsprechen	-0.1601
-5.1043 durchstarten	-0.1557
-5.1043 durchziehen	-0.1465
-4.8028 dü	-0.1578
-4.4049 dürfen	-0.1943
-3.9577 dürfte	-0.1188
-4.8028 dürften	-0.4135
-4.5018 e	-0.2343
-3.0868 eben	-0.1720
-4.1039 ebenfalls	-0.1876
-4.5018 ebenso	-0.3950
-4.0625 echt	-0.2706
-5.1043 edel	-0.1592
-5.1043 ef	-0.1600
-3.5241 egal	-0.3070
-3.5987 eh	-0.2288
-3.3480 eher	-0.1769
-4.8028 ehesten	-0.1464
-3.8251 ehrlich	-0.8983
-4.8028 ei	-0.1564
-5.1043 eiene	-0.1600
-5.1043 eigene	-0.1600
-5.1043 eigenem	-0.1600
-5.1043 eigener	-0.1601
-5.1043 eigenes	-0.1596
-2.7556 eigentlich	-0.3527
-4.3257 eilig	-0.1727
-2.2323 ein	-0.5336
-5.1043 einbeziehen	-0.1583
-5.1043 einbringen	-0.1252
-5.1043 einbuchen	-0.1587
-4.5018 einchecken	-0.1499
-2.3427 eine	-0.6856
-3.4049 eineinhalb	-1.0276
-3.3963 einem	-0.3415
-2.5512 einen	-0.5329
-3.2977 einer	-0.2763
-3.5724 eines	-0.3786
-2.9703 einfach	-0.2416
-5.1043 einfache	-0.1601
-4.8028 einfacher	-0.1153
-5.1043 einfachste	-0.1570
-5.1043 einfallen	-0.1597
-4.6267 einfällt	-0.1259
-5.1043 eingebaut	-0.1600
-5.1043 eingecheckt	-0.1579
-5.1043 eingeholt	-0.1550
-5.1043 eingeladen	-0.1593
-4.8028 eingeplant	-0.1560
-5.1043 eingeschaltet	-0.1532
-5.1043 eingeschrieben	-0.1510
-5.1043 eingestuft	-0.1583
-4.5018 eingetragen	-0.0900
-5.1043 eingewöhnen	-0.1532
-5.1043 einhalb	-0.1597
-3.7237 einhundert	-0.3079
-4.3257 einig	-0.1708
-3.8028 einige	-0.2703
-3.5987 einigen	-0.4162
-5.1043 einiger	-0.1591
-4.5018 einigermaßen	-0.1051
-4.1039 einiges	-0.1585
-5.1043 einkalkulieren	-0.1589
-5.1043 einlassen	-0.1252
-3.4411 einmal	-0.3271
-5.1043 einmalige	-0.1601
-4.4049 einnehmen	-0.1062
-5.1043 einpacken	-0.1532
-5.1043 einplanen	-0.1252
-4.6267 einquartieren	-0.2809
-5.1043 einrechnen	-0.1550
-4.8028 einrichten	-0.1204
-5.1043 einräumen	-0.1252
-3.7816 eins	-0.4773
-4.5018 einschließlich	-0.1246
-5.1043 einsteigen	-0.1583
-4.8028 einstellen	-0.1238
-5.1043 eintragen	-0.1539
-5.1043 eintreffen	-0.1532
-5.1043 eintägig	-0.1557
-5.1043 einunddreißig	-0.1601
-4.6267 einunddreißigste	-0.3136
-4.4049 einunddreißigsten	-0.3260
-3.9899 einundfünfzig	-0.7827
-3.8251 einundzwanzig	-1.3987
-4.8028 einundzwanzigste	-0.1532
-4.2008 einundzwanzigsten	-0.1512
-4.6267 einundzwanzigster	-0.1548
-3.5987 einverstanden	-0.2779
-5.1043 einwenden	-0.1252
-5.1043 einzelne	-0.1601
-4.6267 einzelnen	-0.1600
-4.1496 einzige	-0.2752
-5.1043 einzuchecken	-0.1584
-5.1043 einzugrenzen	-0.1252
-5.1043 einzunehmen	-0.1252
-5.1043 einzurichten	-0.1252
-5.1043 eleganter	-0.1595
-3.5598 elf	-0.4902
-4.2588 elfte	-0.1504
-3.4226 elften	-0.4702
-3.4806 elfter	-1.0295
-3.5724 empfehlen	-0.2516
-4.8028 empfehlenswert	-0.1390
-4.1496 empfohlen	-0.2299
-4.6267 endlich	-0.3134
-4.8028 endlos	-0.1600
-4.0625 eng	-0.1849
-5.1043 engen	-0.1601
-5.1043 engere	-0.1601
-5.1043 enorme	-0.1601
-5.1043 enormer	-0.1601
-5.1043 entbehrlich	-0.1579
-5.1043 entfernen	-0.1598
-3.6125 entfernt	-0.3056
-5.1043 entgegen	-0.1587
-4.6267 entgegenkommen	-0.5432
-5.1043 entgegennehmen	-0.1572
-3.4911 entscheiden	-0.2648
-5.1043 entschieden	-0.1252
-5.1043 entschlossen	-0.1252
-4.4049 entschuldigen	-0.7691
-5.1043 entsinne	-0.1252
-4.5018 entspannen	-0.2355
-4.5018 entspannend	-0.1576
-5.1043 entspannt	-0.1596
-5.1043 entsprechen	-0.1592
-4.5018 entsprechend	-0.1523
-5.1043 entsprechende	-0.1601
-5.1043 entsprechenden	-0.1601
-5.1043 entspricht	-0.1559
-4.8028 enttäuschen	-0.1530
-5.1043 enttäuscht	-0.1252
-3.7816 entweder	-0.1691
-5.1043 entwickelt	-0.1560
-3.8734 er	-0.0713
-4.8028 erfahren	-0.1104
-4.8028 erfolgreichen	-0.1592
-5.1043 erforderlich	-0.1252
-5.1043 erfreut	-0.1252
-5.1043 erfüllt	-0.1601
-4.6267 ergeben	-0.1574
-4.6267 ergibt	-0.3120
-4.8028 ergänzen	-0.1551
-5.1043 erheblich	-0.1601
-4.6267 erholen	-0.1143
-5.1043 erholt	-0.1252
-4.3257 erinnere	-0.2794
-4.5018 erinnern	-0.1173
-5.1043 erinnert	-0.1595
-5.1043 erkennen	-0.1591
-4.8028 erkläre	-0.4221
-5.1043 erklären	-0.1252
-5.1043 erklärt	-0.1536
-5.1043 erkund	-0.1252
-4.8028 erkundige	-0.4105
-3.3796 erkundigen	-0.4156
-3.6125 erkundigt	-0.2234
-5.1043 erle	-0.1565
-5.1043 erleben	-0.1465
-3.9278 erledigen	-0.1445
-4.0625 erledigt	-0.1223
-5.1043 erreichbar	-0.1595
-5.1043 erreiche	-0.1577
-4.2008 erreichen	-0.2053
-5.1043 erreicht	-0.1584
-5.1043 erscheinen	-0.1510
-4.8028 erscheint	-0.1529
-5.1043 erschwinglich	-0.1532
-5.1043 erschöpft	-0.1590
-5.1043 ersetzt	-0.1584
-5.1043 erspart	-0.1601
-3.0394 erst	-0.5048
-5.1043 erstar	-0.1601
-5.1043 erstatten	-0.1597
-5.1043 erstaunlich	-0.1252
-3.2778 erste	-0.2936
-3.2346 ersten	-0.4392
-3.8028 erster	-0.5096
-4.8028 erstes	-0.1571
-5.1043 erstrecken	-0.1597
-5.1043 ersucht	-0.1589
-4.8028 erträglich	-0.1104
-4.5018 erwische	-0.3889
-4.6267 erwischen	-0.2814
-5.1043 erwähnt	-0.1589
-4.8028 erzählen	-0.1232
-2.0164 es	-0.5456
-4.8028 esse	-0.1585
-3.4911 essen	-0.4410
-5.1043 essenstechnisch	-0.1592
-4.6267 et	-0.5782
-5.1043 etw	-0.1575
-3.7059 etwa	-0.2125
-2.9800 etwas	-0.3227
-3.5128 eventuell	-0.2654
-5.1043 eventuellen	-0.1601
-4.4049 ewig	-0.1937
-5.1043 ewigen	-0.1601
-5.1043 exakte	-0.1595
-5.1043 explizit	-0.1575
-5.1043 exquisite	-0.1601
-4.5018 extra	-0.2368
-4.8028 exzellente	-0.1601
-3.2910 f	-0.0949
-4.6267 fa	-0.1485
-5.1043 fackeln	-0.1252
-5.1043 fahr-Termin	-0.1583
-3.7614 fahre	-0.5157
-2.5241 fahren	-0.4870
-4.8028 fallen	-0.1585
-3.7816 falls	-0.4901
-5.1043 falschen	-0.1591
-4.6267 fand	-0.1250
-5.1043 fanden	-0.1510
-4.3257 fangen	-0.3899
-4.3257 fassen	-0.3615
-3.6889 fast	-0.2486
-5.1043 faul	-0.1601
-5.1043 faxe	-0.1465
-4.8028 fehlt	-0.1561
-4.6267 feiern	-0.1496
-4.1039 fein	-0.2301
-3.8028 fertig	-0.4607
-5.1043 feschen	-0.1601
-3.3963 fest	-0.5007
-5.1043 festen	-0.1595
-5.1043 festgelegt	-0.1252
-4.2008 festhalten	-0.2222
-5.1043 festkriegen	-0.1465
-4.1496 festlegen	-0.1956
-4.4049 festmachen	-0.3222
-5.1043 feststehend	-0.1252
-5.1043 fiel	-0.1578
-5.1043 finanziell	-0.1592
-3.3715 finde	-0.7949
-3.5241 finden	-0.3080
-4.6267 findet	-0.3156
-5.1043 fit	-0.1599
-4.8028 fix	-0.1177
-5.1043 fl	-0.1550
-4.6267 flach	-0.2821
-4.4049 flexibel	-0.0971
-5.1043 flexibler	-0.1593
-5.1043 flieg	-0.1593
-4.1496 fliege	-0.1268
-2.7328 fliegen	-0.5031
-3.7421 fliegt	-0.2514
-5.1043 flott	-0.1252
-5.1043 flü	-0.1600
-5.1043 folgende	-0.1252
-4.6267 folgenden	-0.1580
-4.8028 folgendermaßen	-0.1549
-4.5018 folgendes	-0.1298
-5.1043 fr	-0.1252
-5.1043 fra	-0.1565
-4.5018 frage	-0.1379
-3.6725 fragen	-0.3517
-3.1954 frei	-0.3247
-4.4049 freie	-0.2467
-4.8028 freien	-0.1600
-5.1043 freier	-0.1595
-4.6267 freihaben	-0.2748
-5.1043 freihalten	-0.1599
-5.1043 freihätten	-0.1532
-5.1043 freimachen	-0.1252
-5.1043 freita	-0.1532
-3.8251 freitags	-0.1074
-3.6267 freue	-1.4901
-4.3257 freuen	-0.2784
-3.9577 freut	-1.2669
-4.2008 frisch	-0.4209
-4.3257 froh	-0.2198
-5.1043 frohes	-0.1601
-3.0175 früh	-0.2105
-5.1043 frühe	-0.1465
-3.9577 frühen	-0.4115
-3.7059 früher	-0.1344
-5.1043 früheren	-0.1252
-4.8028 früheste	-0.1590
-5.1043 frühesten	-0.1590
-4.4049 frühestens	-0.1398
-4.8028 frühmorgens	-0.1598
-4.5018 frühste	-0.1574
-4.6267 frühsten	-0.1548
-5.1043 frühstens	-0.1569
-4.2588 frühstücken	-0.2536
-5.1043 fuhr	-0.1568
-4.8028 funktionieren	-0.1233
-4.6267 funktioniert	-0.1488
-5.1043 furch	-0.1601
-4.6267 furchtbar	-0.2725
-5.1043 furchtbare	-0.1598
-4.8028 fähr	-0.1563
-3.4411 fährt	-0.2762
-3.9278 fällt	-0.2847
-3.8734 fände	-0.8818
-4.6267 fängt	-0.1393
-4.5018 fü	-0.1571
-5.1043 fühle	-0.1465
-5.1043 führen	-0.1510
-5.1043 führt	-0.1547
-4.8028 fün	-0.1250
-2.7796 fünf	-0.6518
-4.5018 fünfhundert	-0.2712
-4.2588 fünfte	-0.2041
-3.4411 fünften	-0.5331
-3.7237 fünfter	-0.4624
-5.1043 fünfund	-0.1599
-4.0247 fünfundachtzig	-1.2384
-3.4806 fünfunddreißig	-0.3435
-3.7816 fünfundfünfzig	-0.1479
-4.0625 fünfundneunzig	-0.4269
-4.1496 fünfundsechzig	-0.4662
-4.4049 fünfundsiebzig	-0.3521
-5.1043 fünfundv	-0.1565
-3.1901 fünfundvierzig	-0.4207
-3.3330 fünfundzwanzig	-0.2109
-4.8028 fünfundzwanzigste	-0.1196
-3.8734 fünfundzwanzigsten	-0.2755
-4.2008 fünfundzwanzigster	-0.1567
-3.1354 fünfzehn	-0.6746
-4.1496 fünfzehnte	-0.2492
-3.7059 fünfzehnten	-0.1650
-4.1039 fünfzehnter	-0.2588
-3.6725 fünfzig	-0.3291
-2.4848 für	-0.6891
-4.6267 fürchterlich	-0.2810
-5.1043 fürchterlichen	-0.1601
-5.1043 fürn	-0.1590
-3.8251 fürs	-0.4300
-4.0247 g	-0.1419
-5.1043 ga	-0.1565
-5.1043 gan	-0.1599
-2.5357 ganz	-0.6691
-4.0247 ganze	-0.1442
-3.5241 ganzen	-0.4060
-4.6267 ganztägige	-0.5781
-3.1954 gar	-1.4042
-4.6267 garten	-0.5432
-4.2008 ge	-0.1502
-5.1043 geahnt	-0.1252
-5.1043 gearbeitet	-0.1589
-5.1043 gebaut	-0.1601
-4.1496 gebe	-0.5542
-3.7059 geben	-0.2856
-5.1043 gebeten	-0.1592
-5.1043 geblieben	-0.1252
-4.6267 gebongt	-0.1104
-4.3257 geboten	-0.1856
-4.8028 gebracht	-0.1510
-5.1043 gebrauchen	-0.1532
-4.2008 gebucht	-0.0896
-3.7059 gedacht	-0.2253
-5.1043 gedauert	-0.1595
-5.1043 gedrängt	-0.1597
-4.6267 geeignet	-0.2800
-4.4049 geeinigt	-0.1947
-4.6267 gefahren	-0.1208
-4.8028 gefallen	-0.1228
-5.1043 gefasst	-0.1465
-4.5018 geflogen	-0.2708
-4.6267 gefreut	-0.1145
-3.9899 gefunden	-0.2755
-4.1496 gefällt	-0.3259
-4.6267 gegeben	-0.1216
-4.6267 gegebenenfalls	-0.1388
-3.2843 gegen	-0.5069
-4.6267 geguckt	-0.1508
-4.5018 gehabt	-0.2526
-3.8734 gehe	-0.3993
-5.1043 geheißen	-0.1252
-2.6210 gehen	-0.5544
-4.3257 gehobene	-0.4283
-4.8028 gehobenen	-0.1600
-4.6267 gehobener	-0.1582
-5.1043 gehobenere	-0.1600
-4.8028 gehofft	-0.1526
-5.1043 geholt	-0.1563
-2.6552 geht	-0.5397
-5.1043 gehöre	-0.1536
-3.6415 gehört	-0.2415
-5.1043 gekauft	-0.1252
-4.5018 geklappt	-0.1228
-3.6725 geklärt	-0.2882
-4.3257 gekommen	-0.2219
-5.1043 gekuckt	-0.1252
-4.5018 gekümmert	-0.1305
-5.1043 gelaunt	-0.1578
-3.5128 gelegen	-0.2528
-4.8028 gelegene	-0.1576
-5.1043 gelegt	-0.1600
-4.8028 gelesen	-0.1570
-5.1043 gelie	-0.1598
-3.7816 gell	-0.3405
-5.1043 gem	-0.1252
-3.5476 gemacht	-0.2741
-4.2588 gemeinsam	-0.1542
-4.1039 gemeinsame	-0.4767
-4.1039 gemeinsamen	-0.3995
-5.1043 gemeinsamer	-0.1601
-5.1043 gemeinsames	-0.1600
-4.6267 gemeint	-0.2782
-3.9577 gemütlich	-0.1372
-4.8028 gemütlichen	-0.1601
-5.1043 gemütlicher	-0.1599
-4.8028 gena	-0.1215
-4.6267 genannt	-0.2800
-2.4575 genau	-0.5020
-4.5018 genaue	-0.1595
-4.6267 genauen	-0.1595
-4.2588 genauer	-0.1587
-4.8028 genauere	-0.1600
-5.1043 genaueres	-0.1593
-5.1043 genauesten	-0.1601
-4.4049 genauso	-0.1152
-5.1043 genehm	-0.1252
-5.1043 genehmigen	-0.1585
-4.6267 generell	-0.1571
-5.1043 genieße	-0.1536
-4.5018 genommen	-0.1197
-4.0247 genug	-0.1423
-5.1043 genächtigt	-0.1532
-5.1043 genügen	-0.1599
-4.4049 genügend	-0.2280
-4.0247 geplant	-0.2976
-4.8028 geplante	-0.1565
-4.6267 geplanten	-0.5780
-3.9577 gerade	-0.1052
-5.1043 geraten	-0.1418
-4.8028 geregelt	-0.1524
-5.1043 gereist	-0.1252
-5.1043 gerettet	-0.1584
-5.1043 geringen	-0.1601
-3.0868 gern	-0.2959
-2.9025 gerne	-0.2754
-5.1043 geruhsam	-0.1592
-3.3715 gesagt	-0.1945
-4.8028 gesalzene	-0.4240
-4.8028 geschafft	-0.1568
-4.8028 geschaut	-0.1206
-4.6267 geschehen	-0.1541
-4.4049 gescheiter	-0.0840
-4.8028 geschickt	-0.1053
-4.8028 geschicktesten	-0.1489
-5.1043 geschlagen	-0.1252
-5.1043 geschlossen	-0.1252
-5.1043 geschneit	-0.1579
-4.5018 geschäftlich	-0.1379
-5.1043 geschäftliche	-0.1601
-5.1043 geschäftlichen	-0.1601
-3.9577 gesehen	-0.3838
-5.1043 gesetzt	-0.1584
-5.1043 gesondert	-0.1565
-5.1043 gesorgt	-0.1252
-5.1043 gespart	-0.1252
-5.1043 gespielt	-0.1465
-5.1043 gesprochen	-0.1579
-5.1043 gestaffelt	-0.1252
-4.6267 gestalten	-0.1226
-5.1043 gestaltet	-0.1252
-5.1043 gestaltung	-0.1418
-5.1043 gestaltungsmöglichkeiten	-0.1252
-5.1043 gesteckt	-0.1600
-5.1043 gestellt	-0.1597
-4.8028 gestern	-0.1596
-5.1043 gestopft	-0.1600
-4.8028 gestorben	-0.1522
-4.8028 gestresst	-0.1578
-4.6267 gesucht	-0.1512
-5.1043 gesug	-0.1565
-5.1043 getan	-0.1532
-4.8028 getrennt	-0.1600
-4.5018 getroffen	-0.1564
-5.1043 getäuscht	-0.1595
-4.5018 gewesen	-0.1556
-5.1043 gewissen	-0.1601
-5.1043 gewissermaßen	-0.1601
-4.8028 gewohnt	-0.1566
-5.1043 gewonnen	-0.1252
-4.8028 geworden	-0.1552
-4.8028 gezahlt	-0.1241
-5.1043 geöffnet	-0.1252
-5.1043 gf	-0.1601
-5.1043 gib	-0.1252
-2.8320 gibt	-0.6237
-5.1043 gilt	-0.1599
-4.2588 ging	-0.1910
-3.2588 ginge	-0.4566
-5.1043 gingen	-0.1559
-4.8028 glatt	-0.1557
-3.0786 glaube	-0.6006
-4.6267 glauben	-0.3106
-2.7165 gleich	-0.3368
-4.2588 gleiche	-0.1100
-4.8028 gleichen	-0.1251
-5.1043 gleicher	-0.1600
-4.8028 gleichfalls	-0.3891
-4.6267 gleichzeitig	-0.1461
-3.1448 grade	-0.1462
-5.1043 granteln	-0.1510
-5.1043 grauenvoll	-0.1592
-5.1043 graut	-0.1559
-5.1043 grob	-0.1553
-4.5018 groß	-0.1494
-5.1043 großartig	-0.1539
-5.1043 großartiges	-0.1583
-4.1496 große	-0.1556
-4.4049 großen	-0.1582
-4.6267 großer	-0.1601
-4.6267 großes	-0.1563
-4.6267 grundsätzlich	-0.1563
-5.1043 gruselt	-0.1547
-4.8028 größere	-0.1251
-4.6267 größeren	-0.1601
-5.1043 größeres	-0.1600
-5.1043 größtenteils	-0.1584
-5.1043 grü	-0.1598
-3.1643 grüß	-2.0939
-4.1039 grüße	-1.0360
-4.5018 gu	-0.3758
-4.8028 gucke	-0.1571
-4.1496 gucken	-0.0883
-1.9562 gut	-0.7041
-3.4049 gute	-0.6773
-4.8028 gutem	-0.1599
-2.8094 guten	-1.5953
-4.0625 guter	-0.2839
-4.0625 gutes	-0.2822
-5.1043 gutgehen	-0.1579
-5.1043 gä	-0.1601
-3.9278 gäbe	-0.8088
-5.1043 gängigen	-0.1600
-3.9577 gönnen	-0.3158
-3.5241 günstig	-0.3298
-5.1043 günstige	-0.1600
-4.6267 günstigen	-0.1590
-3.8028 günstiger	-0.2816
-5.1043 günstigere	-0.1584
-4.8028 günstigeren	-0.1597
-4.1496 günstigste	-0.1531
-4.2588 günstigsten	-0.3278
-4.8028 h	-0.1597
-4.0247 ha	-0.2133
-2.2870 habe	-0.8048
-2.3066 haben	-0.6281
-4.5018 hach	-0.1401
-3.6415 halb	-0.5836
-4.6267 halbe	-0.5779
-5.1043 halben	-0.1592
-5.1043 halber	-0.1592
-5.1043 halle	-0.1601
-3.4806 hallo	-0.7695
-3.0868 halt	-0.2267
-4.5018 halte	-0.6485
-3.4226 halten	-0.9547
-4.8028 han	-0.1565
-5.1043 handelt	-0.1559
-4.8028 handhaben	-0.1580
-4.8028 hart	-0.1600
-5.1043 harten	-0.1601
-2.8584 hat	-0.4846
-3.8028 hatte	-0.2478
-3.4911 hatten	-0.6559
-4.8028 hauen	-0.1478
-5.1043 hauptsächlich	-0.1587
-5.1043 haut	-0.1572
-4.3257 he	-0.2657
-5.1043 hechele	-0.1465
-5.1043 heftig	-0.1601
-5.1043 heilig	-0.1563
-4.8028 heim	-0.1177
-5.1043 heiß	-0.1536
-5.1043 heißen	-0.1601
-3.2650 heißt	-0.2912
-5.1043 hektisch	-0.1252
-4.3257 helfen	-0.3871
-4.1039 her	-0.0961
-5.1043 herausfinden	-0.1595
-5.1043 herausgestellt	-0.1565
-4.8028 herausgesucht	-0.1465
-5.1043 herauszusuchen	-0.1581
-5.1043 hernach	-0.1568
-5.1043 hernehmen	-0.1557
-4.6267 herrje	-0.1221
-5.1043 herrliches	-0.1599
-5.1043 herum	-0.1252
-4.0247 hervorragend	-0.2099
-5.1043 hervorragende	-0.1599
-4.6267 herzlich	-0.1163
-5.1043 herzlichen	-0.1599
-3.7059 heute	-0.1699
-5.1043 heutigen	-0.1591
-4.6267 heutzutage	-0.1597
-5.1043 hi	-0.1550
-5.1043 hie	-0.1252
-2.7219 hier	-0.2373
-5.1043 hiesigen	-0.1601
-4.4049 hieß	-0.1926
-5.1043 hießen	-0.1560
-5.1043 hilft	-0.1585
-3.2062 hin	-0.5644
-5.1043 hinaus	-0.1252
-5.1043 hinbringe	-0.1532
-5.1043 hinbringen	-0.1584
-5.1043 hindurchzuführen	-0.1579
-5.1043 hineinstopft	-0.1532
-5.1043 hinf	-0.1587
-3.7237 hinfahren	-0.2202
-4.8028 hinfliegen	-0.1507
-5.1043 hinführen	-0.1252
-5.1043 hing	-0.1252
-4.1039 hingehen	-0.1929
-5.1043 hingeht	-0.1532
-5.1043 hingekriegt	-0.1598
-5.1043 hingelegt	-0.1595
-5.1043 hinke	-0.1568
-4.6267 hinkomme	-0.1176
-3.7237 hinkommen	-0.2387
-5.1043 hinkommt	-0.1532
-5.1043 hinkriege	-0.1418
-4.5018 hinreisen	-0.1430
-5.1043 hinschauen	-0.1418
-4.6267 hinten	-0.3172
-3.9278 hinter	-1.2961
-4.5018 hintereinander	-0.1309
-4.5018 hinterher	-0.1234
-5.1043 hinterlassen	-0.1510
-5.1043 hinwollten	-0.1252
-4.8028 hinzu	-0.1584
-5.1043 hinzufügen	-0.1532
-5.1043 hinzukommt	-0.1576
-1.8467 hm	-0.6995
-4.8028 ho	-0.1465
-5.1043 hochfahren	-0.1532
-5.1043 hof-Hotel	-0.1510
-5.1043 hoff	-0.1252
-3.8997 hoffe	-0.3338
-5.1043 hoffen	-0.1252
-4.5018 hoffentlich	-0.1495
-5.1043 hohen	-0.1601
-5.1043 hoher	-0.1601
-4.4049 hole	-0.1357
-4.4049 holen	-0.1010
-5.1043 holi	-0.1600
-5.1043 holzig	-0.1532
-5.1043 hotel	-0.1550
-5.1043 hoteleigene	-0.1596
-4.8028 huh	-0.1104
-4.8028 hui	-0.1053
-5.1043 human	-0.1595
-4.8028 hun	-0.1232
-2.8734 hundert	-0.7747
-4.6267 hä	-0.1192
-5.1043 hält	-0.1592
-4.5018 hängt	-0.4205
-5.1043 hätt	-0.1252
-2.9107 hätte	-0.5657
-2.9577 hätten	-1.0279
-5.1043 höchste	-0.1601
-4.8028 höchsten	-0.1574
-4.1496 höchstens	-0.2474
-5.1043 höchstwahrscheinlich	-0.1594
-4.6267 höher	-0.1235
-4.8028 höhere	-0.4240
-4.8028 höheren	-0.1600
-5.1043 höherer	-0.1600
-4.5018 höre	-0.2226
-4.8028 hören	-0.1455
-3.5241 hört	-1.2069
-4.5018 hörte	-0.4255
-5.1043 hübsch	-0.1595
-4.8028 hübsche	-0.1251
-5.1043 hübschen	-0.1601
-5.1043 hübsches	-0.1583
-4.3257 i	-0.3852
-1.5118 ich	-0.7636
-4.4049 ideal	-0.1013
-5.1043 idealsten	-0.1252
-5.1043 if	-0.1536
-5.1043 ih	-0.1252
-5.1043 ihm	-0.1590
-4.2008 ihn	-0.1047
-4.8028 ihnen	-0.1596
-4.8028 ihr	-0.1583
-5.1043 ihre	-0.1584
-4.8028 ihren	-0.1601
-2.4066 im	-0.7011
-2.9080 immer	-0.2594
-5.1043 immerhin	-0.1578
-2.0629 in	-1.0068
-4.8028 inbegriffen	-0.1532
-5.1043 informiere	-0.1587
-4.2008 informieren	-0.2926
-4.3257 informiert	-0.1848
-4.6267 inklusive	-0.1176
-4.2008 innerhalb	-0.5265
-2.9336 ins	-0.9387
-4.6267 insgesamt	-0.1489
-5.1043 inso	-0.1601
-3.9577 insofern	-0.1723
-4.8028 inszeniert	-0.1181
-5.1043 integriert	-0.1595
-4.8028 interess	-0.1204
-3.9577 interessant	-0.1694
-4.6267 interessante	-0.1599
-4.8028 interessanter	-0.1550
-5.1043 interessantes	-0.1598
-5.1043 interessantesten	-0.1465
-3.9899 interessieren	-0.1520
-4.2008 interessiert	-0.2083
-5.1043 investieren	-0.1594
-5.1043 inwieweit	-0.1547
-4.6267 inzwischen	-0.1586
-4.0625 irgend	-0.3982
-4.2588 irgendein	-0.2179
-4.2588 irgendeine	-0.1597
-4.2588 irgendeinen	-0.2194
-5.1043 irgendeiner	-0.1601
-4.8028 irgendeines	-0.1553
-3.8251 irgendwann	-0.2531
-3.5357 irgendwas	-0.2592
-3.6889 irgendwelche	-0.2083
-5.1043 irgendwelchen	-0.1601
-3.2346 irgendwie	-0.1601
-3.6567 irgendwo	-0.2047
-4.6267 irrelevant	-0.1170
-5.1043 is	-0.1601
-1.8260 ist	-0.6180
-5.1043 italienisch	-0.1576
-5.1043 italienische	-0.1601
-4.2588 j	-0.1966
-1.3838 ja	-0.5982
-5.1043 japanisch	-0.1588
-5.1043 japanisches	-0.1596
-3.6889 jawohl	-0.4519
-3.6415 je	-0.6800
-4.1039 jede	-0.6217
-4.8028 jedem	-0.4239
-3.3557 jeden	-1.2789
-5.1043 jedenfalls	-0.1601
-4.4049 jeder	-0.1492
-4.6267 jederzeit	-0.1581
-4.8028 jedes	-0.1567
-5.1043 jeman	-0.1565
-4.3257 jemand	-0.1460
-5.1043 jemandem	-0.1600
-5.1043 jemanden	-0.1577
-4.6267 jet	-0.1230
-2.5737 jetzt	-0.2217
-4.8028 jeweiligen	-0.1601
-3.6415 jeweils	-0.4357
-4.3257 k	-0.1690
-5.1043 kalkulieren	-0.1252
-4.8028 kalt	-0.1104
-5.1043 kamen	-0.1465
-2.6536 kann	-0.7779
-4.8028 kate	-0.1601
-5.1043 kategorie	-0.1591
-5.1043 kategorien	-0.1532
-5.1043 kau	-0.1601
-4.4049 kaufen	-0.1905
-4.6267 kaum	-0.1567
-3.1401 kein	-0.7520
-3.1848 keine	-0.4320
-5.1043 keinem	-0.1599
-3.7237 keinen	-0.3650
-4.8028 keinerlei	-0.1600
-5.1043 kenn	-0.1598
-3.4911 kenne	-0.6630
-3.8251 kennen	-0.4479
-5.1043 kennenzulernen	-0.1596
-4.6267 kennt	-0.3027
-4.8028 kl	-0.1549
-4.6267 klang	-0.1429
-4.1496 klappen	-0.2029
-3.9899 klappt	-0.3171
-2.9735 klar	-0.4455
-5.1043 klaren	-0.1601
-5.1043 klargehen	-0.1587
-5.1043 klarmachen	-0.1252
-5.1043 klarzumachen	-0.1252
-3.9278 klasse	-0.2778
-4.8028 klassische	-0.1600
-5.1043 klassisches	-0.1252
-5.1043 klauen	-0.1550
-5.1043 klebt	-0.1418
-4.6267 kleine	-0.1538
-3.9278 kleinen	-0.3187
-4.8028 kleiner	-0.1601
-5.1043 kleinere	-0.1601
-5.1043 kleineren	-0.1601
-4.6267 kleines	-0.1586
-3.3557 klingt	-0.6960
-3.7816 klären	-0.2967
-5.1043 knallvoll	-0.1589
-3.8028 knapp	-0.2241
-5.1043 knickrig	-0.1590
-5.1043 ko	-0.1601
-4.5018 komfortabel	-0.1386
-5.1043 komfortabelste	-0.1583
-5.1043 komfortable	-0.1591
-4.8028 komfortabler	-0.1248
-5.1043 komisch	-0.1252
-5.1043 komischen	-0.1601
-5.1043 komischer	-0.1600
-3.5241 komme	-0.4608
-3.1594 kommen	-0.5127
-4.8028 kommenden	-0.4240
-3.3796 kommt	-0.1694
-5.1043 kompensieren	-0.1252
-4.8028 komplett	-0.1598
-5.1043 komplisch	-0.1591
-4.8028 kompliziert	-0.1053
-5.1043 kompromissbereit	-0.1252
-5.1043 konkete	-0.1601
-4.3257 konkret	-0.1508
-4.8028 konkrete	-0.4240
-4.6267 konkreten	-0.3173
-5.1043 konnte	-0.1581
-4.8028 konnten	-0.1394
-5.1043 kooperativ	-0.1418
-4.3257 korrekt	-0.2309
-3.7421 kosten	-0.2439
-3.1082 kostet	-0.4817
-5.1043 krass	-0.1569
-4.6267 kriege	-0.5646
-3.7421 kriegen	-0.2062
-4.6267 kriegt	-0.1379
-5.1043 kritisch	-0.1465
-5.1043 ks	-0.1465
-5.1043 ku	-0.1599
-4.1496 kucke	-0.2957
-3.9278 kucken	-0.2563
-5.1043 kuckt	-0.1601
-4.6267 kulturell	-0.1597
-4.8028 kulturelle	-0.1600
-5.1043 kulturmäßig	-0.1536
-5.1043 kunden	-0.1599
-4.2588 kundig	-0.6413
-3.2778 kurz	-0.3848
-5.1043 kurze	-0.1600
-5.1043 kurzem	-0.1589
-5.1043 kurzes	-0.1601
-3.9899 kurzfristig	-0.2088
-5.1043 kurzweiliger	-0.1495
-4.0247 käme	-0.1920
-4.5018 kämen	-0.1200
-5.1043 kö	-0.1495
-4.6267 könn	-0.1222
-2.3912 können	-0.8546
-4.8028 könnt	-0.1276
-2.8917 könnte	-0.5285
-2.6645 könnten	-0.6374
-5.1043 körperlich	-0.1601
-3.7614 kümmere	-1.3467
-3.3796 kümmern	-0.4169
-4.5018 kürzer	-0.2609
-5.1043 kürzere	-0.1601
-4.6267 kürzlich	-0.1593
-4.5018 l	-0.2685
-4.8028 la	-0.1539
-4.8028 lag	-0.3891
-3.3480 lang	-0.2658
-3.4911 lange	-0.1343
-4.3257 langen	-0.1100
-5.1043 langer	-0.1596
-5.1043 langes	-0.1597
-4.4049 langsam	-0.2386
-5.1043 langstreckenerprobt	-0.1553
-4.5018 langt	-0.2519
-3.9899 lasse	-0.7598
-3.1796 lassen	-0.6794
-5.1043 lau	-0.1536
-4.1496 laufen	-0.1464
-5.1043 lauschiges	-0.1583
-4.8028 laut	-0.1539
-5.1043 lauter	-0.1600
-5.1043 leben	-0.1252
-4.2008 lege	-0.3948
-4.1039 legen	-0.4447
-5.1043 leger	-0.1601
-4.5018 leicht	-0.1234
-5.1043 leichter	-0.1589
-3.9899 leid	-0.4864
-5.1043 leidenschaftlicher	-0.1601
-5.1043 leidenschaftslos	-0.1584
-3.1545 leider	-0.3489
-5.1043 leidig	-0.1465
-5.1043 leidige	-0.1598
-4.5018 leisten	-0.2205
-5.1043 leiter	-0.1532
-5.1043 lernt	-0.1593
-5.1043 lesen	-0.1547
-3.5987 letzte	-0.4408
-5.1043 letztem	-0.1600
-3.6889 letzten	-0.2415
-5.1043 letztendlich	-0.1536
-4.8028 letztens	-0.1573
-4.4049 letzter	-0.7735
-3.9278 letztes	-0.8374
-5.1043 letztlich	-0.1568
-4.0625 lieb	-0.1201
-4.6267 liebe	-0.1558
-4.8028 lieben	-0.1489
-2.8760 lieber	-0.4206
-3.6725 liebsten	-0.2807
-3.6567 liegen	-0.2229
-5.1043 liegenden	-0.1583
-3.1901 liegt	-0.3111
-4.5018 ließe	-0.6612
-5.1043 links	-0.1584
-4.5018 locker	-0.1539
-5.1043 logieren	-0.1576
-4.8028 lohnen	-0.1543
-3.3963 los	-0.2987
-3.5241 losfahren	-0.3345
-5.1043 losfliege	-0.1252
-3.8997 losfliegen	-0.3682
-4.5018 losgehen	-0.2303
-4.8028 losgeht	-0.3891
-5.1043 losgeschickt	-0.1599
-4.8028 loslegen	-0.1177
-5.1043 losstarten	-0.1252
-5.1043 losziehen	-0.1252
-5.1043 loszufliegen	-0.1560
-4.6267 lustig	-0.1154
-5.1043 luxuriös	-0.1539
-4.6267 luxuriöser	-0.1501
-4.8028 läge	-0.1563
-3.7059 länger	-0.2803
-5.1043 längere	-0.1599
-4.0625 lässt	-0.6831
-3.6415 läuft	-0.2974
-4.8028 löse	-0.1423
-5.1043 lösen	-0.1495
-3.8486 m	-0.1703
-4.8028 ma	-0.1566
-5.1043 mach	-0.1252
-4.5018 machbar	-0.2191
-3.4911 mache	-0.9535
-2.5207 machen	-0.5663
-3.7237 macht	-0.2630
-4.2588 mag	-0.4595
-2.2129 mal	-0.3339
-2.7291 man	-0.3314
-4.6267 managen	-0.1242
-4.6267 manchmal	-0.3107
-5.1043 maximal	-0.1572
-5.1043 me	-0.1583
-3.2231 mehr	-0.3133
-4.3257 mehrere	-0.1585
-5.1043 mehrmals	-0.1536
-4.2008 mei	-0.3734
-3.1307 mein	-0.6577
-3.0664 meine	-0.2979
-3.6567 meinem	-0.3503
-3.2008 meinen	-0.4095
-3.6125 meiner	-0.7095
-4.8028 meines	-0.1601
-4.2588 meinetwegen	-0.1431
-4.6267 meinte	-0.1324
-5.1043 meistbietend	-0.1601
-5.1043 meiste	-0.1601
-5.1043 meisten	-0.1601
-4.5018 meistens	-0.1501
-4.1496 melde	-0.6360
-4.1039 melden	-0.3147
-5.1043 menschlichen	-0.1591
-4.6267 merke	-0.5646
-4.5018 merken	-0.4155
-4.8028 merkt	-0.4233
-5.1043 mexikanische	-0.1599
-5.1043 mi	-0.1574
-2.4911 mich	-0.4806
-4.8028 mieten	-0.1496
-4.5018 mindestens	-0.2493
-2.2682 mir	-0.5160
-2.2079 mit	-0.7561
-5.1043 mitbekommen	-0.1557
-5.1043 mitbringen	-0.1594
-4.3257 mitbuchen	-0.0765
-4.6267 miteinander	-0.1575
-5.1043 mitessen	-0.1532
-4.8028 mitfahren	-0.1597
-4.8028 mitgeben	-0.1227
-4.2588 mitgebracht	-0.0963
-5.1043 mitgehen	-0.1252
-5.1043 mitgekriegt	-0.1418
-5.1043 mitgenommen	-0.1532
-5.1043 mitgeteilt	-0.1465
-5.1043 mitkommen	-0.1550
-4.2588 mitnehmen	-0.1745
-4.8028 mitschicken	-0.1104
-4.8028 mittag	-0.1242
-4.8028 mittagessen	-0.1576
-3.7421 mittags	-0.1993
-5.1043 mitteilen	-0.1589
-5.1043 mitten	-0.1563
-4.0625 mittlere	-0.4628
-5.1043 mittlerem	-0.1601
-4.8028 mittleren	-0.1601
-5.1043 mittlerer	-0.1600
-5.1043 mittlerweile	-0.1563
-4.4049 mittwochs	-0.1442
-4.5018 mitzukommen	-0.2274
-4.4049 mm	-0.2085
-4.6267 mo	-0.1504
-5.1043 moa	-0.1510
-5.1043 mobil	-0.1590
-5.1043 moderner	-0.1601
-4.4049 momentan	-0.1162
-3.8734 montags	-0.5285
-3.9278 morgen	-0.2252
-3.3715 morgens	-0.3204
-5.1043 mosert	-0.1600
-5.1043 munkelt	-0.1565
-5.1043 musikbegeistert	-0.1550
-2.8206 muss	-0.5181
-5.1043 musste	-0.1592
-3.3404 möchte	-0.4435
-3.3257 möchten	-0.5277
-4.8028 mögen	-0.1136
-5.1043 mögl	-0.1601
-3.4411 möglich	-0.2310
-4.8028 mögliche	-0.1251
-5.1043 möglichen	-0.1600
-4.8028 möglicherweise	-0.1586
-5.1043 möglichkeiten	-0.1583
-3.8734 möglichst	-0.3225
-5.1043 mü	-0.1599
-4.6267 müde	-0.3057
-2.7536 müssen	-0.6048
-3.2714 müsste	-0.5456
-3.2977 müssten	-0.6699
-3.8997 n	-0.1138
-2.8534 na	-0.7640
-2.4848 nach	-0.7739
-5.1043 nachbesprechen	-0.1252
-3.7237 nachdem	-0.3112
-5.1043 nacheinander	-0.1591
-4.6267 nachfragen	-0.2820
-5.1043 nachgedacht	-0.1584
-5.1043 nachgekuckt	-0.1252
-5.1043 nachgucken	-0.1589
-4.1039 nachher	-0.1277
-5.1043 nachhinein	-0.1568
-5.1043 nachkucken	-0.1465
-4.1496 nachmittag	-0.1386
-3.7059 nachmittags	-0.1828
-5.1043 nachsch	-0.1252
-3.8734 nachschauen	-0.1445
-4.8028 nachschlagen	-0.1537
-4.8028 nachsehen	-0.1177
-4.0625 nah	-0.3228
-4.6267 nahe	-0.1585
-5.1043 nahegelegenen	-0.1600
-2.9577 natürlich	-0.1950
-3.2405 ne	-0.4710
-5.1043 neben	-0.1581
-5.1043 nebeneinander	-0.1597
-2.9135 nee	-0.3934
-3.3796 nehme	-1.1055
-2.6253 nehmen	-0.7064
-5.1043 nei	-0.1252
-5.1043 neidisch	-0.1252
-2.9395 nein	-0.4199
-5.1043 nen	-0.1598
-4.2008 nennen	-0.1666
-5.1043 nerven	-0.1252
-5.1043 nervig	-0.1587
-3.3330 nett	-0.3680
-4.4049 nette	-0.1464
-4.6267 netten	-0.1600
-4.8028 netter	-0.1593
-4.2008 nettes	-0.1965
-5.1043 neu	-0.1591
-4.4049 neue	-0.1599
-4.6267 neuen	-0.3172
-5.1043 neuer	-0.1601
-5.1043 neuerdings	-0.1581
-4.5018 neues	-0.1599
-5.1043 neueste	-0.1601
-4.5018 neulich	-0.1546
-3.0704 neun	-0.6240
-4.2588 neunte	-0.4451
-3.4507 neunten	-0.3355
-3.5476 neunter	-0.5215
-5.1043 neunund	-0.1601
-4.4049 neununddreißig	-0.2014
-4.4049 neunundfünfzig	-0.3423
-4.3257 neunundneunzig	-0.1864
-4.4049 neunundsechzig	-0.2170
-5.1043 neunundvierzig	-0.1600
-4.0625 neunundzwanzig	-0.3469
-4.8028 neunundzwanzigste	-0.1588
-3.6725 neunundzwanzigsten	-0.3332
-3.9278 neunundzwanzigster	-0.3590
-3.9899 neunzehn	-0.6624
-4.6267 neunzehnhundert	-0.3172
-4.6267 neunzehnte	-0.3163
-3.7237 neunzehnten	-0.2753
-4.6267 neunzehnter	-0.1561
-4.2008 neunzig	-0.3310
-5.1043 ni	-0.1465
-2.1786 nicht	-0.3592
-3.1901 nichts	-0.2098
-5.1043 nichtssagende	-0.1601
-4.1496 nie	-0.1783
-5.1043 niedrigere	-0.1536
-4.8028 niemanden	-0.1547
-5.1043 nimmt	-0.1465
-3.7816 nix	-0.2718
-5.1043 no	-0.1568
-2.1153 noch	-0.3683
-5.1043 normal	-0.1596
-5.1043 normale	-0.1601
-5.1043 normalen	-0.1565
-4.6267 normalerweise	-0.1501
-4.8028 normales	-0.1600
-5.1043 notfalls	-0.1583
-4.2588 notiere	-0.4260
-4.3257 notieren	-0.1834
-4.2588 notiert	-0.1051
-5.1043 null	-0.1598
-3.7614 nun	-0.2078
-2.8320 nur	-0.2371
-4.3257 nutzen	-0.2778
-3.9577 nächste	-0.1711
-3.4507 nächsten	-0.6701
-4.6267 nächstes	-0.3141
-5.1043 nächstmöglichen	-0.1601
-4.8028 nächtigen	-0.1590
-4.6267 näher	-0.3141
-4.8028 nähere	-0.1594
-5.1043 näheren	-0.1601
-5.1043 näherer	-0.1601
-3.3715 nämlich	-0.2193
-5.1043 nördlicher	-0.1252
-4.8028 nötig	-0.1533
-4.8028 o	-0.3891
-3.0786 ob	-0.7358
-4.6267 oben	-0.1587
-5.1043 obere	-0.1600
-5.1043 observiert	-0.1579
-3.8028 obwohl	-0.2460
-4.6267 och	-0.1428
-5.1043 ode	-0.1252
-2.2423 oder	-0.2803
-4.0247 offen	-0.0727
-5.1043 offenen	-0.1595
-5.1043 offenes	-0.1601
-4.8028 offenhalten	-0.1233
-4.5018 offenlassen	-0.1444
-5.1043 offensichtlich	-0.1601
-4.1039 oft	-0.1076
-3.0585 oh	-0.4041
-4.1496 ohne	-0.1383
-4.4049 ohnehin	-0.1571
-5.1043 ohohoho	-0.1593
-4.3257 oje	-0.2570
-4.8028 ok	-0.1465
-2.4786 okay	-0.7203
-5.1043 ole	-0.1550
-4.6267 one	-0.5782
-5.1043 opfern	-0.1557
-4.8028 optimal	-0.1323
-5.1043 ordern	-0.1510
-5.1043 organisiere	-0.1577
-4.6267 organisieren	-0.1531
-4.6267 organisiert	-0.1487
-5.1043 orientieren	-0.1599
-5.1043 ortskundig	-0.1532
-5.1043 p	-0.1581
-3.6267 paar	-0.3343
-5.1043 packen	-0.1581
-5.1043 packt	-0.1578
-4.8028 parat	-0.3891
-5.1043 parken	-0.1595
-5.1043 passe	-0.1587
-3.4806 passen	-0.6185
-4.5018 passend	-0.1150
-4.5018 passieren	-0.1493
-4.6267 passiert	-0.1210
-3.3963 passt	-0.4548
-5.1043 peilen	-0.1252
-4.0247 per	-0.4315
-3.8997 perfekt	-0.2509
-3.8486 persönlich	-0.2247
-4.8028 pf	-0.1560
-4.8028 phantastisch	-0.1196
-5.1043 phänomenal	-0.1252
-4.4049 plane	-0.4962
-3.6267 planen	-0.3740
-3.9899 plus	-0.7961
-5.1043 plädiere	-0.1465
-5.1043 prakt	-0.1418
-3.8028 praktisch	-0.1817
-4.8028 preisgünstig	-0.4175
-4.8028 preisgünstiger	-0.1447
-5.1043 preisgünstiges	-0.1583
-3.9899 preislich	-0.1998
-5.1043 preismäßig	-0.1592
-4.4049 preiswert	-0.1456
-5.1043 preiswerte	-0.1536
-5.1043 preiswerter	-0.1418
-5.1043 preiswerteren	-0.1601
-5.1043 preiswertes	-0.1583
-4.6267 preiswerteste	-0.2969
-5.1043 preiswertesten	-0.1600
-5.1043 pressiert	-0.1418
-3.5128 prima	-0.4359
-5.1043 prinzipiell	-0.1418
-4.4049 privat	-0.1157
-3.8997 pro	-0.4561
-5.1043 probier	-0.1252
-4.1496 probieren	-0.1976
-4.5018 problematisch	-0.1348
-5.1043 prof	-0.1579
-5.1043 proppenvoll	-0.1418
-4.8028 prächtig	-0.1506
-5.1043 prügeln	-0.1595
-4.8028 puh	-0.1592
-4.5018 pünktlich	-0.1455
-5.1043 qu	-0.1536
-5.1043 quasi	-0.1592
-5.1043 quatschen	-0.1532
-4.8028 r	-0.1564
-5.1043 ran	-0.1592
-5.1043 rasen	-0.1584
-5.1043 raten	-0.1601
-5.1043 rauche	-0.1578
-5.1043 rauchen	-0.1596
-5.1043 rauffahren	-0.1252
-5.1043 raufkommen	-0.1532
-5.1043 raum	-0.1594
-3.8251 raus	-0.2235
-5.1043 rausbekommen	-0.1597
-4.4049 rausfahren	-0.2234
-5.1043 rausfallen	-0.1252
-5.1043 rausgefunden	-0.1589
-5.1043 rausgehen	-0.1418
-4.8028 rausgekommen	-0.1535
-4.8028 rausgeschrieben	-0.1520
-3.7614 rausgesucht	-0.2724
-5.1043 rausgezögert	-0.1584
-5.1043 rausholen	-0.1550
-4.6267 rauskommen	-0.1303
-5.1043 rauskommt	-0.1598
-5.1043 rauskriegen	-0.1592
-5.1043 rausschicken	-0.1465
-4.8028 rausschreiben	-0.4238
-4.6267 raussuchen	-0.1572
-5.1043 rauszufinden	-0.1578
-5.1043 re	-0.1584
-5.1043 rech	-0.1557
-4.8028 rechnen	-0.1136
-2.8072 recht	-0.3706
-4.3257 rechtzeitig	-0.2242
-5.1043 rede	-0.1574
-4.8028 reden	-0.1596
-5.1043 regele	-0.1465
-4.6267 regelmäßig	-0.2779
-4.8028 regeln	-0.1236
-5.1043 rei	-0.1252
-3.7421 reichen	-0.4541
-3.8251 reicht	-0.2705
-4.1039 rein	-0.2263
-5.1043 reinblättern	-0.1252
-4.1039 reine	-0.3624
-4.8028 reinfahren	-0.1541
-5.1043 reingefahren	-0.1465
-4.5018 reingehen	-0.3901
-5.1043 reingespart	-0.1536
-5.1043 reinkucken	-0.1252
-5.1043 reinlegen	-0.1252
-5.1043 reinmüssen	-0.1536
-5.1043 reinpassen	-0.1465
-5.1043 reinschauen	-0.1252
-5.1043 reinschieben	-0.1252
-5.1043 reinspielt	-0.1252
-5.1043 reise	-0.1587
-3.6267 reisen	-0.4564
-5.1043 reisende	-0.1601
-5.1043 reizen	-0.1252
-5.1043 reizend	-0.1591
-5.1043 rel	-0.1600
-5.1043 rela	-0.1600
-3.3257 relativ	-0.4682
-4.6267 relevant	-0.1190
-5.1043 ren	-0.1599
-5.1043 renommiertes	-0.1583
-5.1043 renov	-0.1252
-4.1496 reserviere	-0.3752
-3.4318 reservieren	-0.2850
-4.6267 reserviert	-0.2811
-5.1043 residiere	-0.1252
-5.1043 ri	-0.1588
-4.1496 richte	-0.9986
-4.6267 richten	-0.1231
-5.1043 richti	-0.1578
-3.1848 richtig	-0.3669
-5.1043 richtige	-0.1601
-4.8028 richtigen	-0.4240
-5.1043 riesen	-0.1601
-5.1043 roten	-0.1601
-5.1043 ruckelt	-0.1596
-3.9278 rufe	-0.5629
-4.8028 rufen	-0.1477
-5.1043 ruft	-0.1592
-3.9577 ruhig	-0.1257
-4.6267 ruhiger	-0.1249
-3.9577 rum	-0.1383
-5.1043 rumgehen	-0.1252
-5.1043 rumkriegen	-0.1539
-5.1043 rumschauen	-0.1532
-5.1043 rumsehen	-0.1578
-5.1043 rumstehen	-0.1601
-4.8028 rumtelefonieren	-0.1531
-5.1043 rumzusitzen	-0.1581
-5.1043 rund	-0.1581
-5.1043 runde	-0.1600
-5.1043 runter	-0.1601
-5.1043 runtergekommen	-0.1536
-5.1043 rü	-0.1252
-4.8028 rüber	-0.3891
-5.1043 rüberfaxen	-0.1252
-5.1043 rüberjetten	-0.1465
-5.1043 rüberkommen	-0.1563
-5.1043 rüberreichen	-0.1465
-5.1043 rückwärts	-0.1557
-5.1043 rütteln	-0.1252
-3.5854 s	-0.1221
-3.7059 sage	-0.6222
-2.5947 sagen	-0.3840
-4.1039 sagt	-0.4241
-5.1043 sagte	-0.1589
-3.8997 sagten	-0.4783
-5.1043 sam	-0.1590
-4.6267 samstags	-0.1514
-5.1043 sauber	-0.1536
-3.9899 sch	-0.1259
-4.2588 schade	-0.2407
-5.1043 schaden	-0.1579
-5.1043 schadet	-0.1586
-4.4049 schaffe	-0.7609
-3.8997 schaffen	-0.2534
-3.8251 schaue	-0.9715
-3.1307 schauen	-0.5909
-3.4411 schaut	-0.9418
-5.1043 scheinbar	-0.1600
-4.5018 scheinen	-0.2690
-4.6267 scheint	-0.1477
-4.2008 schicke	-0.6686
-4.2588 schicken	-0.1942
-5.1043 schieben	-0.1591
-5.1043 schien	-0.1418
-5.1043 schiene	-0.1578
-5.1043 schießt	-0.1598
-5.1043 schinden	-0.1495
-5.1043 schla	-0.1601
-4.2588 schlafen	-0.1953
-4.2588 schlage	-0.6285
-3.9577 schlagen	-1.2568
-4.2588 schlau	-0.4897
-5.1043 schlauer	-0.1599
-4.8028 schle	-0.3891
-5.1043 schlech	-0.1565
-2.9671 schlecht	-0.4915
-4.1496 schlechte	-0.5324
-4.8028 schlechter	-0.1583
-4.6267 schließe	-0.3022
-4.8028 schließen	-0.1482
-5.1043 schließlich	-0.1568
-4.8028 schließt	-0.1426
-4.3257 schlimm	-0.1684
-5.1043 schläft	-0.1593
-5.1043 schmeckt	-0.1600
-5.1043 schnarchen	-0.1252
-5.1043 schneit	-0.1536
-3.4911 schnell	-0.1860
-5.1043 schnellen	-0.1595
-3.8251 schneller	-0.2668
-4.2588 schnellsten	-0.1113
-5.1043 schnurzegal	-0.1465
-2.2850 schon	-0.2637
-5.1043 schonen	-0.1599
-4.8028 schrecklich	-0.1492
-3.7816 schreibe	-0.8008
-4.2588 schreiben	-0.3499
-5.1043 schwache	-0.1601
-5.1043 schwebt	-0.1581
-4.3257 schwer	-0.1250
-3.8734 schwierig	-0.1884
-5.1043 schwierige	-0.1600
-5.1043 schwieriger	-0.1592
-4.5018 schwimmen	-0.1138
-5.1043 schwitzen	-0.1495
-5.1043 schäme	-0.1587
-3.9899 schätze	-0.8970
-5.1043 schätzungsweise	-0.1574
-5.1043 schö	-0.1600
-2.9395 schön	-0.3961
-3.7816 schöne	-0.3160
-3.4604 schönen	-0.7967
-4.8028 schöner	-0.1601
-4.1039 schönes	-0.1987
-5.1043 schönste	-0.1583
-4.8028 schönsten	-0.1470
-4.6267 se	-0.1542
-3.2174 sechs	-0.8629
-3.8251 sechshundert	-1.3009
-4.3257 sechste	-0.2670
-3.8028 sechsten	-0.3137
-3.9278 sechster	-0.2740
-5.1043 sechsund	-0.1565
-4.2588 sechsundachtzig	-0.7449
-4.5018 sechsunddreißig	-0.1456
-5.1043 sechsundfünf	-0.1594
-4.0247 sechsundfünfzig	-0.2145
-4.2008 sechsundneunzig	-0.5346
-4.2008 sechsundvierzig	-0.2265
-4.5018 sechsundzwanzig	-0.2666
-4.8028 sechsundzwanzigste	-0.1528
-3.7421 sechsundzwanzigsten	-0.3291
-4.5018 sechsundzwanzigster	-0.1374
-3.6415 sechzehn	-1.3178
-4.8028 sechzehnte	-0.1598
-3.9577 sechzehnten	-0.1381
-3.9899 sechzehnter	-0.2557
-4.6267 sechzig	-0.1599
-3.2526 sehe	-0.5372
-3.1126 sehen	-0.6110
-2.5416 sehr	-0.6339
-4.1039 sei	-0.5653
-5.1043 seien	-0.1559
-2.8786 sein	-0.4575
-4.6267 seine	-0.1599
-4.4049 seit	-0.2452
-5.1043 seitdem	-0.1572
-5.1043 selbe	-0.1601
-4.5018 selben	-0.2701
-3.9577 selber	-0.1708
-4.1039 selbst	-0.1387
-4.1039 selbstverständlich	-0.2139
-4.5018 selten	-0.1377
-5.1043 seltenes	-0.1601
-5.1043 senden	-0.1581
-5.1043 serviert	-0.1465
-4.5018 servus	-0.6271
-4.5018 setzen	-0.1113
-5.1043 setzten	-0.1593
-5.1043 shuttle	-0.1252
-4.8028 si	-0.1553
-2.6973 sich	-0.4313
-3.4911 sicher	-0.2111
-5.1043 sicherheitshalber	-0.1577
-3.9577 sicherlich	-0.1620
-3.5018 sie	-0.1628
-5.1043 sieb	-0.1418
-2.7942 sieben	-0.9010
-5.1043 siebenhundert	-0.1600
-5.1043 siebenten	-0.1252
-4.0247 siebenundfünfzig	-0.1322
-5.1043 siebenundneunzig	-0.1601
-4.8028 siebenundsiebzig	-0.1599
-4.8028 siebenundvierzig	-0.4233
-4.4049 siebenundzwanzig	-0.1109
-4.2008 siebenundzwanzigste	-0.3239
-3.5987 siebenundzwanzigsten	-0.2414
-3.9577 siebenundzwanzigster	-0.4251
-4.3257 siebte	-0.2941
-3.6567 siebten	-0.2435
-4.1039 siebter	-0.2377
-5.1043 siebz	-0.1252
-3.3257 siebzehn	-1.0402
-4.6267 siebzehnte	-0.1397
-3.9577 siebzehnten	-0.1041
-4.1496 siebzehnter	-0.3024
-3.3404 siebzig	-1.2079
-3.0001 sieht	-1.1190
-5.1043 sin	-0.1465
-2.5947 sind	-0.4653
-5.1043 sinnlos	-0.1601
-5.1043 sinnvoller	-0.1584
-5.1043 sinnvollsten	-0.1572
-5.1043 situell	-0.1600
-5.1043 sitze	-0.1465
-4.3257 sitzen	-0.1042
-4.6267 sitzt	-0.3141
-5.1043 sn	-0.1599
-2.1837 so	-0.2756
-4.8028 sobald	-0.1464
-5.1043 sofern	-0.1584
-4.3257 sofort	-0.1497
-3.5724 sogar	-0.1710
-5.1043 solange	-0.1559
-5.1043 solche	-0.1601
-3.1594 soll	-0.5086
-3.2526 sollen	-0.8801
-3.3796 sollte	-0.2075
-3.0910 sollten	-0.6471
-4.8028 sondern	-0.1598
-4.2588 sonntags	-0.1355
-3.3257 sonst	-0.2735
